{"learner":{"attributes":{"scikit_learn":"{\"_estimator_type\": \"classifier\"}"},"feature_names":["f0","f1","f2","f3","f4","f5","f6","f7","f8","f9","f10","f11","f12","f13","f14"],"feature_types":["float","float","float","float","float","float","float","float","float","float","float","float","float","float","float"],"gradient_booster":{"model":{"cats":{"enc":[],"feature_segments":[],"sorted_idx":[]},"gbtree_model_param":{"num_parallel_tree":"1","num_trees":"4000"},"iteration_indptr":[0,10,20,30,40,50,60,70,80,90,100,110,120,130,140,150,160,170,180,190,200,210,220,230,240,250,260,270,280,290,300,310,320,330,340,350,360,370,380,390,400,410,420,430,440,450,460,470,480,490,500,510,520,530,540,550,560,570,580,590,600,610,620,630,640,650,660,670,680,690,700,710,720,730,740,750,760,770,780,790,800,810,820,830,840,850,860,870,880,890,900,910,920,930,940,950,960,970,980,990,1000,1010,1020,1030,1040,1050,1060,1070,1080,1090,1100,1110,1120,1130,1140,1150,1160,1170,1180,1190,1200,1210,1220,1230,1240,1250,1260,1270,1280,1290,1300,1310,1320,1330,1340,1350,1360,1370,1380,1390,1400,1410,1420,1430,1440,1450,1460,1470,1480,1490,1500,1510,1520,1530,1540,1550,1560,1570,1580,1590,1600,1610,1620,1630,1640,1650,1660,1670,1680,1690,1700,1710,1720,1730,1740,1750,1760,1770,1780,1790,1800,1810,1820,1830,1840,1850,1860,1870,1880,1890,1900,1910,1920,1930,1940,1950,1960,1970,1980,1990,2000,2010,2020,2030,2040,2050,2060,2070,2080,2090,2100,2110,2120,2130,2140,2150,2160,2170,2180,2190,2200,2210,2220,2230,2240,2250,2260,2270,2280,2290,2300,2310,2320,2330,2340,2350,2360,2370,2380,2390,2400,2410,2420,2430,2440,2450,2460,2470,2480,2490,2500,2510,2520,2530,2540,2550,2560,2570,2580,2590,2600,2610,2620,2630,2640,2650,2660,2670,2680,2690,2700,2710,2720,2730,2740,2750,2760,2770,2780,2790,2800,2810,2820,2830,2840,2850,2860,2870,2880,2890,2900,2910,2920,2930,2940,2950,2960,2970,2980,2990,3000,3010,3020,3030,3040,3050,3060,3070,3080,3090,3100,3110,3120,3130,3140,3150,3160,3170,3180,3190,3200,3210,3220,3230,3240,3250,3260,3270,3280,3290,3300,3310,3320,3330,3340,3350,3360,3370,3380,3390,3400,3410,3420,3430,3440,3450,3460,3470,3480,3490,3500,3510,3520,3530,3540,3550,3560,3570,3580,3590,3600,3610,3620,3630,3640,3650,3660,3670,3680,3690,3700,3710,3720,3730,3740,3750,3760,3770,3780,3790,3800,3810,3820,3830,3840,3850,3860,3870,3880,3890,3900,3910,3920,3930,3940,3950,3960,3970,3980,3990,4000],"tree_info":[0,1,2,3,4,5,6,7,8,9,0,1,2,3,4,5,6,7,8,9,0,1,2,3,4,5,6,7,8,9,0,1,2,3,4,5,6,7,8,9,0,1,2,3,4,5,6,7,8,9,0,1,2,3,4,5,6,7,8,9,0,1,2,3,4,5,6,7,8,9,0,1,2,3,4,5,6,7,8,9,0,1,2,3,4,5,6,7,8,9,0,1,2,3,4,5,6,7,8,9,0,1,2,3,4,5,6,7,8,9,0,1,2,3,4,5,6,7,8,9,0,1,2,3,4,5,6,7,8,9,0,1,2,3,4,5,6,7,8,9,0,1,2,3,4,5,6,7,8,9,0,1,2,3,4,5,6,7,8,9,0,1,2,3,4,5,6,7,8,9,0,1,2,3,4,5,6,7,8,9,0,1,2,3,4,5,6,7,8,9,0,1,2,3,4,5,6,7,8,9,0,1,2,3,4,5,6,7,8,9,0,1,2,3,4,5,6,7,8,9,0,1,2,3,4,5,6,7,8,9,0,1,2,3,4,5,6,7,8,9,0,1,2,3,4,5,6,7,8,9,0,1,2,3,4,5,6,7,8,9,0,1,2,3,4,5,6,7,8,9,0,1,2,3,4,5,6,7,8,9,0,1,2,3,4,5,6,7,8,9,0,1,2,3,4,5,6,7,8,9,0,1,2,3,4,5,6,7,8,9,0,1,2,3,4,5,6,7,8,9,0,1,2,3,4,5,6,7,8,9,0,1,2,3,4,5,6,7,8,9,0,1,2,3,4,5,6,7,8,9,0,1,2,3,4,5,6,7,8,9,0,1,2,3,4,5,6,7,8,9,0,1,2,3,4,5,6,7,8,9,0,1,2,3,4,5,6,7,8,9,0,1,2,3,4,5,6,7,8,9,0,1,2,3,4,5,6,7,8,9,0,1,2,3,4,5,6,7,8,9,0,1,2,3,4,5,6,7,8,9,0,1,2,3,4,5,6,7,8,9,0,1,2,3,4,5,6,7,8,9,0,1,2,3,4,5,6,7,8,9,0,1,2,3,4,5,6,7,8,9,0,1,2,3,4,5,6,7,8,9,0,1,2,3,4,5,6,7,8,9,0,1,2,3,4,5,6,7,8,9,0,1,2,3,4,5,6,7,8,9,0,1,2,3,4,5,6,7,8,9,0,1,2,3,4,5,6,7,8,9,0,1,2,3,4,5,6,7,8,9,0,1,2,3,4,5,6,7,8,9,0,1,2,3,4,5,6,7,8,9,0,1,2,3,4,5,6,7,8,9,0,1,2,3,4,5,6,7,8,9,0,1,2,3,4,5,6,7,8,9,0,1,2,3,4,5,6,7,8,9,0,1,2,3,4,5,6,7,8,9,0,1,2,3,4,5,6,7,8,9,0,1,2,3,4,5,6,7,8,9,0,1,2,3,4,5,6,7,8,9,0,1,2,3,4,5,6,7,8,9,0,1,2,3,4,5,6,7,8,9,0,1,2,3,4,5,6,7,8,9,0,1,2,3,4,5,6,7,8,9,0,1,2,3,4,5,6,7,8,9,0,1,2,3,4,5,6,7,8,9,0,1,2,3,4,5,6,7,8,9,0,1,2,3,4,5,6,7,8,9,0,1,2,3,4,5,6,7,8,9,0,1,2,3,4,5,6,7,8,9,0,1,2,3,4,5,6,7,8,9,0,1,2,3,4,5,6,7,8,9,0,1,2,3,4,5,6,7,8,9,0,1,2,3,4,5,6,7,8,9,0,1,2,3,4,5,6,7,8,9,0,1,2,3,4,5,6,7,8,9,0,1,2,3,4,5,6,7,8,9,0,1,2,3,4,5,6,7,8,9,0,1,2,3,4,5,6,7,8,9,0,1,2,3,4,5,6,7,8,9,0,1,2,3,4,5,6,7,8,9,0,1,2,3,4,5,6,7,8,9,0,1,2,3,4,5,6,7,8,9,0,1,2,3,4,5,6,7,8,9,0,1,2,3,4,5,6,7,8,9,0,1,2,3,4,5,6,7,8,9,0,1,2,3,4,5,6,7,8,9,0,1,2,3,4,5,6,7,8,9,0,1,2,3,4,5,6,7,8,9,0,1,2,3,4,5,6,7,8,9,0,1,2,3,4,5,6,7,8,9,0,1,2,3,4,5,6,7,8,9,0,1,2,3,4,5,6,7,8,9,0,1,2,3,4,5,6,7,8,9,0,1,2,3,4,5,6,7,8,9,0,1,2,3,4,5,6,7,8,9,0,1,2,3,4,5,6,7,8,9,0,1,2,3,4,5,6,7,8,9,0,1,2,3,4,5,6,7,8,9,0,1,2,3,4,5,6,7,8,9,0,1,2,3,4,5,6,7,8,9,0,1,2,3,4,5,6,7,8,9,0,1,2,3,4,5,6,7,8,9,0,1,2,3,4,5,6,7,8,9,0,1,2,3,4,5,6,7,8,9,0,1,2,3,4,5,6,7,8,9,0,1,2,3,4,5,6,7,8,9,0,1,2,3,4,5,6,7,8,9,0,1,2,3,4,5,6,7,8,9,0,1,2,3,4,5,6,7,8,9,0,1,2,3,4,5,6,7,8,9,0,1,2,3,4,5,6,7,8,9,0,1,2,3,4,5,6,7,8,9,0,1,2,3,4,5,6,7,8,9,0,1,2,3,4,5,6,7,8,9,0,1,2,3,4,5,6,7,8,9,0,1,2,3,4,5,6,7,8,9,0,1,2,3,4,5,6,7,8,9,0,1,2,3,4,5,6,7,8,9,0,1,2,3,4,5,6,7,8,9,0,1,2,3,4,5,6,7,8,9,0,1,2,3,4,5,6,7,8,9,0,1,2,3,4,5,6,7,8,9,0,1,2,3,4,5,6,7,8,9,0,1,2,3,4,5,6,7,8,9,0,1,2,3,4,5,6,7,8,9,0,1,2,3,4,5,6,7,8,9,0,1,2,3,4,5,6,7,8,9,0,1,2,3,4,5,6,7,8,9,0,1,2,3,4,5,6,7,8,9,0,1,2,3,4,5,6,7,8,9,0,1,2,3,4,5,6,7,8,9,0,1,2,3,4,5,6,7,8,9,0,1,2,3,4,5,6,7,8,9,0,1,2,3,4,5,6,7,8,9,0,1,2,3,4,5,6,7,8,9,0,1,2,3,4,5,6,7,8,9,0,1,2,3,4,5,6,7,8,9,0,1,2,3,4,5,6,7,8,9,0,1,2,3,4,5,6,7,8,9,0,1,2,3,4,5,6,7,8,9,0,1,2,3,4,5,6,7,8,9,0,1,2,3,4,5,6,7,8,9,0,1,2,3,4,5,6,7,8,9,0,1,2,3,4,5,6,7,8,9,0,1,2,3,4,5,6,7,8,9,0,1,2,3,4,5,6,7,8,9,0,1,2,3,4,5,6,7,8,9,0,1,2,3,4,5,6,7,8,9,0,1,2,3,4,5,6,7,8,9,0,1,2,3,4,5,6,7,8,9,0,1,2,3,4,5,6,7,8,9,0,1,2,3,4,5,6,7,8,9,0,1,2,3,4,5,6,7,8,9,0,1,2,3,4,5,6,7,8,9,0,1,2,3,4,5,6,7,8,9,0,1,2,3,4,5,6,7,8,9,0,1,2,3,4,5,6,7,8,9,0,1,2,3,4,5,6,7,8,9,0,1,2,3,4,5,6,7,8,9,0,1,2,3,4,5,6,7,8,9,0,1,2,3,4,5,6,7,8,9,0,1,2,3,4,5,6,7,8,9,0,1,2,3,4,5,6,7,8,9,0,1,2,3,4,5,6,7,8,9,0,1,2,3,4,5,6,7,8,9,0,1,2,3,4,5,6,7,8,9,0,1,2,3,4,5,6,7,8,9,0,1,2,3,4,5,6,7,8,9,0,1,2,3,4,5,6,7,8,9,0,1,2,3,4,5,6,7,8,9,0,1,2,3,4,5,6,7,8,9,0,1,2,3,4,5,6,7,8,9,0,1,2,3,4,5,6,7,8,9,0,1,2,3,4,5,6,7,8,9,0,1,2,3,4,5,6,7,8,9,0,1,2,3,4,5,6,7,8,9,0,1,2,3,4,5,6,7,8,9,0,1,2,3,4,5,6,7,8,9,0,1,2,3,4,5,6,7,8,9,0,1,2,3,4,5,6,7,8,9,0,1,2,3,4,5,6,7,8,9,0,1,2,3,4,5,6,7,8,9,0,1,2,3,4,5,6,7,8,9,0,1,2,3,4,5,6,7,8,9,0,1,2,3,4,5,6,7,8,9,0,1,2,3,4,5,6,7,8,9,0,1,2,3,4,5,6,7,8,9,0,1,2,3,4,5,6,7,8,9,0,1,2,3,4,5,6,7,8,9,0,1,2,3,4,5,6,7,8,9,0,1,2,3,4,5,6,7,8,9,0,1,2,3,4,5,6,7,8,9,0,1,2,3,4,5,6,7,8,9,0,1,2,3,4,5,6,7,8,9,0,1,2,3,4,5,6,7,8,9,0,1,2,3,4,5,6,7,8,9,0,1,2,3,4,5,6,7,8,9,0,1,2,3,4,5,6,7,8,9,0,1,2,3,4,5,6,7,8,9,0,1,2,3,4,5,6,7,8,9,0,1,2,3,4,5,6,7,8,9,0,1,2,3,4,5,6,7,8,9,0,1,2,3,4,5,6,7,8,9,0,1,2,3,4,5,6,7,8,9,0,1,2,3,4,5,6,7,8,9,0,1,2,3,4,5,6,7,8,9,0,1,2,3,4,5,6,7,8,9,0,1,2,3,4,5,6,7,8,9,0,1,2,3,4,5,6,7,8,9,0,1,2,3,4,5,6,7,8,9,0,1,2,3,4,5,6,7,8,9,0,1,2,3,4,5,6,7,8,9,0,1,2,3,4,5,6,7,8,9,0,1,2,3,4,5,6,7,8,9,0,1,2,3,4,5,6,7,8,9,0,1,2,3,4,5,6,7,8,9,0,1,2,3,4,5,6,7,8,9,0,1,2,3,4,5,6,7,8,9,0,1,2,3,4,5,6,7,8,9,0,1,2,3,4,5,6,7,8,9,0,1,2,3,4,5,6,7,8,9,0,1,2,3,4,5,6,7,8,9,0,1,2,3,4,5,6,7,8,9,0,1,2,3,4,5,6,7,8,9,0,1,2,3,4,5,6,7,8,9,0,1,2,3,4,5,6,7,8,9,0,1,2,3,4,5,6,7,8,9,0,1,2,3,4,5,6,7,8,9,0,1,2,3,4,5,6,7,8,9,0,1,2,3,4,5,6,7,8,9,0,1,2,3,4,5,6,7,8,9,0,1,2,3,4,5,6,7,8,9,0,1,2,3,4,5,6,7,8,9,0,1,2,3,4,5,6,7,8,9,0,1,2,3,4,5,6,7,8,9,0,1,2,3,4,5,6,7,8,9,0,1,2,3,4,5,6,7,8,9,0,1,2,3,4,5,6,7,8,9,0,1,2,3,4,5,6,7,8,9,0,1,2,3,4,5,6,7,8,9,0,1,2,3,4,5,6,7,8,9,0,1,2,3,4,5,6,7,8,9,0,1,2,3,4,5,6,7,8,9,0,1,2,3,4,5,6,7,8,9,0,1,2,3,4,5,6,7,8,9,0,1,2,3,4,5,6,7,8,9,0,1,2,3,4,5,6,7,8,9,0,1,2,3,4,5,6,7,8,9,0,1,2,3,4,5,6,7,8,9,0,1,2,3,4,5,6,7,8,9,0,1,2,3,4,5,6,7,8,9,0,1,2,3,4,5,6,7,8,9,0,1,2,3,4,5,6,7,8,9,0,1,2,3,4,5,6,7,8,9,0,1,2,3,4,5,6,7,8,9,0,1,2,3,4,5,6,7,8,9,0,1,2,3,4,5,6,7,8,9,0,1,2,3,4,5,6,7,8,9,0,1,2,3,4,5,6,7,8,9,0,1,2,3,4,5,6,7,8,9,0,1,2,3,4,5,6,7,8,9,0,1,2,3,4,5,6,7,8,9,0,1,2,3,4,5,6,7,8,9,0,1,2,3,4,5,6,7,8,9,0,1,2,3,4,5,6,7,8,9,0,1,2,3,4,5,6,7,8,9,0,1,2,3,4,5,6,7,8,9,0,1,2,3,4,5,6,7,8,9,0,1,2,3,4,5,6,7,8,9,0,1,2,3,4,5,6,7,8,9,0,1,2,3,4,5,6,7,8,9,0,1,2,3,4,5,6,7,8,9,0,1,2,3,4,5,6,7,8,9,0,1,2,3,4,5,6,7,8,9,0,1,2,3,4,5,6,7,8,9,0,1,2,3,4,5,6,7,8,9,0,1,2,3,4,5,6,7,8,9,0,1,2,3,4,5,6,7,8,9,0,1,2,3,4,5,6,7,8,9,0,1,2,3,4,5,6,7,8,9,0,1,2,3,4,5,6,7,8,9,0,1,2,3,4,5,6,7,8,9,0,1,2,3,4,5,6,7,8,9,0,1,2,3,4,5,6,7,8,9,0,1,2,3,4,5,6,7,8,9,0,1,2,3,4,5,6,7,8,9,0,1,2,3,4,5,6,7,8,9,0,1,2,3,4,5,6,7,8,9,0,1,2,3,4,5,6,7,8,9,0,1,2,3,4,5,6,7,8,9,0,1,2,3,4,5,6,7,8,9,0,1,2,3,4,5,6,7,8,9,0,1,2,3,4,5,6,7,8,9,0,1,2,3,4,5,6,7,8,9,0,1,2,3,4,5,6,7,8,9,0,1,2,3,4,5,6,7,8,9,0,1,2,3,4,5,6,7,8,9,0,1,2,3,4,5,6,7,8,9,0,1,2,3,4,5,6,7,8,9,0,1,2,3,4,5,6,7,8,9,0,1,2,3,4,5,6,7,8,9,0,1,2,3,4,5,6,7,8,9,0,1,2,3,4,5,6,7,8,9,0,1,2,3,4,5,6,7,8,9,0,1,2,3,4,5,6,7,8,9,0,1,2,3,4,5,6,7,8,9,0,1,2,3,4,5,6,7,8,9,0,1,2,3,4,5,6,7,8,9,0,1,2,3,4,5,6,7,8,9,0,1,2,3,4,5,6,7,8,9,0,1,2,3,4,5,6,7,8,9,0,1,2,3,4,5,6,7,8,9,0,1,2,3,4,5,6,7,8,9,0,1,2,3,4,5,6,7,8,9,0,1,2,3,4,5,6,7,8,9,0,1,2,3,4,5,6,7,8,9,0,1,2,3,4,5,6,7,8,9,0,1,2,3,4,5,6,7,8,9,0,1,2,3,4,5,6,7,8,9,0,1,2,3,4,5,6,7,8,9,0,1,2,3,4,5,6,7,8,9,0,1,2,3,4,5,6,7,8,9,0,1,2,3,4,5,6,7,8,9,0,1,2,3,4,5,6,7,8,9,0,1,2,3,4,5,6,7,8,9,0,1,2,3,4,5,6,7,8,9,0,1,2,3,4,5,6,7,8,9,0,1,2,3,4,5,6,7,8,9,0,1,2,3,4,5,6,7,8,9,0,1,2,3,4,5,6,7,8,9,0,1,2,3,4,5,6,7,8,9,0,1,2,3,4,5,6,7,8,9,0,1,2,3,4,5,6,7,8,9,0,1,2,3,4,5,6,7,8,9,0,1,2,3,4,5,6,7,8,9,0,1,2,3,4,5,6,7,8,9,0,1,2,3,4,5,6,7,8,9,0,1,2,3,4,5,6,7,8,9,0,1,2,3,4,5,6,7,8,9,0,1,2,3,4,5,6,7,8,9,0,1,2,3,4,5,6,7,8,9,0,1,2,3,4,5,6,7,8,9,0,1,2,3,4,5,6,7,8,9,0,1,2,3,4,5,6,7,8,9,0,1,2,3,4,5,6,7,8,9,0,1,2,3,4,5,6,7,8,9,0,1,2,3,4,5,6,7,8,9,0,1,2,3,4,5,6,7,8,9,0,1,2,3,4,5,6,7,8,9,0,1,2,3,4,5,6,7,8,9,0,1,2,3,4,5,6,7,8,9,0,1,2,3,4,5,6,7,8,9,0,1,2,3,4,5,6,7,8,9,0,1,2,3,4,5,6,7,8,9,0,1,2,3,4,5,6,7,8,9,0,1,2,3,4,5,6,7,8,9,0,1,2,3,4,5,6,7,8,9,0,1,2,3,4,5,6,7,8,9,0,1,2,3,4,5,6,7,8,9,0,1,2,3,4,5,6,7,8,9,0,1,2,3,4,5,6,7,8,9,0,1,2,3,4,5,6,7,8,9,0,1,2,3,4,5,6,7,8,9,0,1,2,3,4,5,6,7,8,9,0,1,2,3,4,5,6,7,8,9,0,1,2,3,4,5,6,7,8,9,0,1,2,3,4,5,6,7,8,9,0,1,2,3,4,5,6,7,8,9,0,1,2,3,4,5,6,7,8,9,0,1,2,3,4,5,6,7,8,9,0,1,2,3,4,5,6,7,8,9,0,1,2,3,4,5,6,7,8,9,0,1,2,3,4,5,6,7,8,9,0,1,2,3,4,5,6,7,8,9,0,1,2,3,4,5,6,7,8,9,0,1,2,3,4,5,6,7,8,9,0,1,2,3,4,5,6,7,8,9,0,1,2,3,4,5,6,7,8,9,0,1,2,3,4,5,6,7,8,9,0,1,2,3,4,5,6,7,8,9,0,1,2,3,4,5,6,7,8,9,0,1,2,3,4,5,6,7,8,9,0,1,2,3,4,5,6,7,8,9,0,1,2,3,4,5,6,7,8,9,0,1,2,3,4,5,6,7,8,9,0,1,2,3,4,5,6,7,8,9,0,1,2,3,4,5,6,7,8,9,0,1,2,3,4,5,6,7,8,9,0,1,2,3,4,5,6,7,8,9,0,1,2,3,4,5,6,7,8,9,0,1,2,3,4,5,6,7,8,9,0,1,2,3,4,5,6,7,8,9,0,1,2,3,4,5,6,7,8,9,0,1,2,3,4,5,6,7,8,9,0,1,2,3,4,5,6,7,8,9],"trees":[{"base_weights":[2.3410614E-3,-4.127814E-2,4.125143E0,1.1093424E1,-4.120117E-2,-4.0345423E-2,1.2840599E1,1.119209E0,1.0905674E1,-3.9501812E-2,1.1034245E0],"categories":[],"categories_nodes":[],"categories_segments":[],"categories_sizes":[],"default_left":[0,0,0,0,0,0,0,0,0,0,0],"id":0,"left_children":[1,-1,3,5,-1,-1,7,-1,9,-1,-1],"loss_changes":[1.883843E4,0E0,3.1840607E4,7.983199E3,0E0,0E0,6.058672E2,0E0,4.3546416E3,0E0,0E0],"parents":[2147483647,0,0,2,2,3,3,6,6,8,8],"right_children":[2,-1,4,6,-1,-1,8,-1,10,-1,-1],"split_conditions":[7.2E-1,-4.127814E-2,3.3E-1,7.5E1,-4.120117E-2,-4.0345423E-2,2.5E-1,1.119209E0,1E2,-3.9501812E-2,1.1034245E0],"split_indices":[3,0,4,14,0,0,4,0,14,0,0],"split_type":[0,0,0,0,0,0,0,0,0,0,0],"sum_hessian":[8.8135205E3,7.8299863E3,9.835336E2,3.9259354E2,5.909401E2,5.1485703E1,3.4110785E2,2.1004237E2,1.3106548E2,2.6647167E1,1.04418304E2],"tree_param":{"num_deleted":"0","num_feature":"15","num_nodes":"11","size_leaf_vector":"1"}},{"base_weights":[3.43362E-3,-2.7171782E-1,9.674872E-1,8.053606E-2,-4.299457E-2,-3.7936103E-1,1.8682159E0,-4.2983398E-2,6.185811E-1,-4.296708E-2,1.0105565E0,3.7097654E0,8.972844E-3,1.1279535E0,-2.2411433E-1,-4.240693E-2,2.0053476E-1,6.626348E-1,5.286349E0,-3.0999872E-1,1.8586562E0,-2.742885E-1,1.7293226E0,-4.2952318E-2,1.2327914E0,-8.667249E-2,2.4588685E0,5.720573E-1,2.0229936E-1,1.4081819E0,-4.2946972E-2,2.0357522E-1,-4.179447E-2,-4.289753E-2,6.3210475E-1,8.040735E-1,1.7751163E0,1.7949806E0,-4.2084258E-2,8.679889E-1,-4.2757776E-2,5.3780847E0,9.856312E-1,-4.1787017E-2,1.8812919E-1,-4.2298734E-2,1.4435779E-1,-4.124451E-2,1.329736E-1,1.4005741E-1,1.5321152E-1,7.6409526E-2,1.4523663E-1,-4.208212E-2,2.0886722E-1,5.5265725E-1,1.7730556E-1,-4.1812707E-2,1.940322E-1],"categories":[],"categories_nodes":[],"categories_segments":[],"categories_sizes":[],"default_left":[0,0,0,0,0,0,0,0,0,0,0,0,0,0,0,0,0,0,0,0,0,0,0,0,0,0,0,0,0,0,0,0,0,0,0,0,0,0,0,0,0,0,0,0,0,0,0,0,0,0,0,0,0,0,0,0,0,0,0],"id":1,"left_children":[1,3,5,7,-1,9,11,-1,13,-1,15,17,19,21,23,-1,-1,25,27,29,31,33,35,-1,37,39,41,-1,-1,43,-1,-1,-1,-1,45,47,49,51,-1,53,-1,55,57,-1,-1,-1,-1,-1,-1,-1,-1,-1,-1,-1,-1,-1,-1,-1,-1],"loss_changes":[5.042518E3,1.3842776E3,5.121424E3,2.114356E3,0E0,3.7150333E2,8.660549E3,0E0,1.4596808E3,0E0,3.9972913E2,6.1009004E3,7.439882E2,1.7876633E3,5.846129E2,0E0,0E0,5.852299E2,4.2857773E3,4.1976135E2,3.0451263E2,1.51531E2,6.1163574E1,0E0,2.2529474E2,1.3189131E2,5.444106E2,0E0,0E0,2.3022372E2,0E0,0E0,0E0,0E0,1.9590749E2,8.2370255E1,1.105957E0,9.489136E-1,0E0,2.408869E2,0E0,1.902262E2,1.8885306E2,0E0,0E0,0E0,0E0,0E0,0E0,0E0,0E0,0E0,0E0,0E0,0E0,0E0,0E0,0E0,0E0],"parents":[2147483647,0,0,1,1,2,2,3,3,5,5,6,6,8,8,10,10,11,11,12,12,13,13,14,14,17,17,18,18,19,19,20,20,21,21,22,22,24,24,25,25,26,26,29,29,34,34,35,35,36,36,37,37,39,39,41,41,42,42],"right_children":[2,4,6,8,-1,10,12,-1,14,-1,16,18,20,22,24,-1,-1,26,28,30,32,34,36,-1,38,40,42,-1,-1,44,-1,-1,-1,-1,46,48,50,52,-1,54,-1,56,58,-1,-1,-1,-1,-1,-1,-1,-1,-1,-1,-1,-1,-1,-1,-1,-1],"split_conditions":[7.1E-1,3E0,3.3E-1,3.5E-1,-4.299457E-2,3.594E1,5.2E-1,-4.2983398E-2,5.5E-1,-4.296708E-2,7.2E-1,2.403E1,3.503E1,2.365E1,3.507E1,-4.240693E-2,2.0053476E-1,2.183E1,7.2E-1,5.3E-1,6.6E-1,2.187E1,2.407E1,-4.2952318E-2,6.6E-1,4E-1,4E-1,5.720573E-1,2.0229936E-1,2.183E1,-4.2946972E-2,2.0357522E-1,-4.179447E-2,-4.289753E-2,4.5E-1,4.2E-1,6.7E-1,2.5E-1,-4.2084258E-2,2.018E1,-4.2757776E-2,7.2E-1,7.2E-1,-4.1787017E-2,1.8812919E-1,-4.2298734E-2,1.4435779E-1,-4.124451E-2,1.329736E-1,1.4005741E-1,1.5321152E-1,7.6409526E-2,1.4523663E-1,-4.208212E-2,2.0886722E-1,5.5265725E-1,1.7730556E-1,-4.1812707E-2,1.940322E-1],"split_indices":[3,10,4,4,0,12,4,0,4,0,3,12,12,12,12,0,0,12,3,4,4,12,12,0,4,4,4,0,0,12,0,0,0,0,4,4,0,0,0,12,0,3,3,0,0,0,0,0,0,0,0,0,0,0,0,0,0,0,0],"split_type":[0,0,0,0,0,0,0,0,0,0,0,0,0,0,0,0,0,0,0,0,0,0,0,0,0,0,0,0,0,0,0,0,0,0,0,0,0,0,0,0,0,0,0,0,0,0,0,0,0,0,0,0,0,0,0,0,0,0,0],"sum_hessian":[1.9007414E4,1.4787511E4,4.219903E3,6.3584805E3,8.42903E3,1.6913365E3,2.5285664E3,2.9597092E3,3.3987712E3,1.5195804E3,1.7175609E2,1.2698007E3,1.2587656E3,2.1181953E3,1.2805759E3,8.4904366E1,8.6851715E1,4.3347964E2,8.36321E2,1.0742869E3,1.8447876E2,6.35874E2,1.4823212E3,1.0548135E3,2.2576253E2,3.0651257E2,1.2696708E2,4.9800177E2,3.3831924E2,1.24630264E2,9.496567E2,1.4319498E2,4.1283775E1,4.937176E2,1.421564E2,7.088346E1,1.4114377E3,1.7110696E2,5.4655563E1,9.7497215E1,2.0901534E2,4.1673244E1,8.529384E1,4.1024128E1,8.360613E1,7.16624E1,7.0493996E1,2.804181E1,4.2841652E1,1.2141064E3,1.9733125E2,5.322751E0,1.6578421E2,5.452574E1,4.2971478E1,2.726287E1,1.4410375E1,4.193289E1,4.3360947E1],"tree_param":{"num_deleted":"0","num_feature":"15","num_nodes":"59","size_leaf_vector":"1"}},{"base_weights":[2.2779528E-2,-4.001368E-2,3.0026565E0,3.487102E1,-3.958582E-2,5.0486576E1,-2.8495874E-2,1.7283012E0,5.377023E0],"categories":[],"categories_nodes":[],"categories_segments":[],"categories_sizes":[],"default_left":[0,0,0,0,0,0,0,0,0],"id":2,"left_children":[1,-1,3,5,-1,7,-1,-1,-1],"loss_changes":[1.0825399E3,0E0,1.1580653E4,5.6744463E3,0E0,1.9822305E3,0E0,0E0,0E0],"parents":[2147483647,0,0,2,2,3,3,5,5],"right_children":[2,-1,4,6,-1,8,-1,-1,-1],"split_conditions":[6E-1,-4.001368E-2,7.5E1,6.6E-1,-3.958582E-2,3.558E1,-2.8495874E-2,1.7283012E0,5.377023E0],"split_indices":[4,0,14,4,0,12,0,0,0],"split_type":[0,0,0,0,0,0,0,0,0],"sum_hessian":[6.92556E2,5.8984106E2,1.0271497E2,9.273635E0,9.344134E1,6.127223E0,3.146412E0,3.0896347E0,3.0375886E0],"tree_param":{"num_deleted":"0","num_feature":"15","num_nodes":"9","size_leaf_vector":"1"}},{"base_weights":[-9.995354E-4,-4.8957773E-2,3.0381617E-1,-4.761551E-1,7.2283524E-1,-3.6676365E-1,-4.8949145E-2,-5.723394E-2,1.1142199E0,-5.3875744E-1,-2.4908334E-1,1.3988512E0,-2.9462567E-1,-4.8909094E-2,1.2761837E0,-4.5818496E-1,-4.891422E-2,-1.5390429E-1,-4.8879962E-2,-4.872401E-2,1.7108455E-1,-4.8949227E-2,1.3632447E0,8.438861E-1,1.5451053E0,-4.8891753E-2,-5.9913606E-3,-4.8875168E-2,-3.059492E-3,-4.8721313E-2,1.6744772E-1,-4.8918307E-2,1.4574757E0,2.026575E0,1.2022003E0,-5.4530487E-3,4.3348796E-3,-9.161982E-4,1.9049593E-3,1.2914796E-1,7.374823E-2,1.6935037E-1,1.4407972E-1,-1.303369E-2,1.3554415E-1],"categories":[],"categories_nodes":[],"categories_segments":[],"categories_sizes":[],"default_left":[0,0,0,0,0,0,0,0,0,0,0,0,0,0,0,0,0,0,0,0,0,0,0,0,0,0,0,0,0,0,0,0,0,0,0,0,0,0,0,0,0,0,0,0,0],"id":3,"left_children":[1,-1,3,5,7,9,-1,11,13,15,17,19,21,-1,23,25,-1,27,-1,-1,-1,-1,29,31,33,-1,35,-1,37,-1,-1,-1,39,41,43,-1,-1,-1,-1,-1,-1,-1,-1,-1,-1],"loss_changes":[8.128607E3,0E0,9.517209E3,1.5076001E2,5.783677E3,1.13897644E2,0E0,2.1882886E3,3.5263467E3,1.3016418E1,1.15214035E2,1.3195189E3,2.8636753E3,0E0,1.3391465E3,7.534198E1,0E0,1.8288763E2,0E0,0E0,0E0,0E0,1.2603334E3,3.9525613E3,1.1708105E3,0E0,1.0404631E0,0E0,4.4928172E-1,0E0,0E0,0E0,2.5983594E2,5.5995117E1,2.791083E3,0E0,0E0,0E0,0E0,0E0,0E0,0E0,0E0,0E0,0E0],"parents":[2147483647,0,0,2,2,3,3,4,4,5,5,7,7,8,8,9,9,10,10,11,11,12,12,14,14,15,15,17,17,22,22,23,23,24,24,26,26,28,28,32,32,33,33,34,34],"right_children":[2,-1,4,6,8,10,-1,12,14,16,18,20,22,-1,24,26,-1,28,-1,-1,-1,-1,30,32,34,-1,36,-1,38,-1,-1,-1,40,42,44,-1,-1,-1,-1,-1,-1,-1,-1,-1,-1],"split_conditions":[2.1E1,-4.8957773E-2,1.19E2,8.5E1,2.407E1,7.5E1,-4.8949145E-2,1.32E0,6E1,3.438E1,6.58E0,6E1,1.4E0,-4.8909094E-2,6.3E0,6E1,-4.891422E-2,6.3E0,-4.8879962E-2,-4.872401E-2,1.7108455E-1,-4.8949227E-2,6E1,8.5E1,6.58E0,-4.8891753E-2,7.5E1,-4.8875168E-2,5.3E-1,-4.8721313E-2,1.6744772E-1,-4.8918307E-2,3.507E1,3.438E1,8.5E1,-5.4530487E-3,4.3348796E-3,-9.161982E-4,1.9049593E-3,1.2914796E-1,7.374823E-2,1.6935037E-1,1.4407972E-1,-1.303369E-2,1.3554415E-1],"split_indices":[8,0,7,14,12,14,0,6,14,12,5,14,6,0,5,14,0,5,0,0,0,0,14,14,5,0,7,0,1,0,0,0,12,12,14,0,0,0,0,0,0,0,0,0,0],"split_type":[0,0,0,0,0,0,0,0,0,0,0,0,0,0,0,0,0,0,0,0,0,0,0,0,0,0,0,0,0,0,0,0,0,0,0,0,0,0,0,0,0,0,0,0,0],"sum_hessian":[4.3645098E4,1.4526834E4,2.9118266E4,1.01760205E4,1.8942244E4,5.636797E3,4.539224E3,6.3288354E3,1.2613409E4,2.2881543E3,3.3486423E3,8.8643176E2,5.442404E3,1.0820209E3,1.1531389E4,1.0891985E3,1.1989557E3,2.6527158E3,6.959267E2,2.386547E2,6.4777704E2,4.568832E3,8.735719E2,4.424084E3,7.107304E3,8.134596E2,2.757389E2,6.5734717E2,1.9953687E3,2.359631E2,6.3760876E2,1.3120027E3,3.1120813E3,2.9541743E3,4.15313E3,1.3637411E2,1.3936478E2,1.5237415E3,4.7162714E2,2.4053882E3,7.0669305E2,2.1033315E3,8.508429E2,1.100563E3,3.0525671E3],"tree_param":{"num_deleted":"0","num_feature":"15","num_nodes":"45","size_leaf_vector":"1"}},{"base_weights":[-1.1921115E-3,9.237792E-1,-4.2876538E-2,1.9078137E-2,4.038307E0,-3.8912702E-1,1.3917031E0,6.4653964E0,1.272394E0,-4.2865023E-2,1.8837017E-1,4.449545E0,1.09275654E-1,5.944859E-1,1.4313568E0,-4.2788003E-2,5.916418E-1,2.8693063E0,-4.280162E-2,6.489909E0,2.3805435E0,-4.2774063E-2,9.447612E-1,-4.2365093E-2,5.7721215E-1,5.8731556E-1,-4.236835E-2,5.891516E-1,5.3638525E0,-4.242734E-2,5.8617455E-1,2.3955193E0,-4.26023E-2,1.7014983E-1,5.8340377E-1,3.821961E-1,-4.227592E-2],"categories":[],"categories_nodes":[],"categories_segments":[],"categories_sizes":[],"default_left":[0,0,0,0,0,0,0,0,0,0,0,0,0,0,0,0,0,0,0,0,0,0,0,0,0,0,0,0,0,0,0,0,0,0,0,0,0],"id":4,"left_children":[1,3,-1,5,7,9,11,13,15,-1,17,19,21,-1,23,-1,-1,25,-1,27,29,-1,31,-1,-1,-1,-1,-1,33,-1,-1,35,-1,-1,-1,-1,-1],"loss_changes":[9.07131E3,1.8930023E4,0E0,2.9182747E3,1.0142795E4,3.4018823E2,4.680762E3,3.9026914E3,7.83988E3,0E0,1.5798464E3,1.4726177E3,4.5363928E2,0E0,1.4885668E3,0E0,0E0,2.6356484E3,0E0,1.335E2,2.5492847E3,0E0,7.880018E2,0E0,0E0,0E0,0E0,0E0,4.898213E2,0E0,0E0,1.294038E3,0E0,0E0,0E0,0E0,0E0],"parents":[2147483647,0,0,1,1,3,3,4,4,5,5,6,6,7,7,8,8,10,10,11,11,12,12,14,14,17,17,19,19,20,20,22,22,28,28,31,31],"right_children":[2,4,-1,6,8,10,12,14,16,-1,18,20,22,-1,24,-1,-1,26,-1,28,30,-1,32,-1,-1,-1,-1,-1,34,-1,-1,36,-1,-1,-1,-1,-1],"split_conditions":[1.21E2,5.5E-1,-4.2876538E-2,7.1E-1,3E0,4.5E-1,2.274E1,3.507E1,6.6E-1,-4.2865023E-2,2.187E1,7.2E-1,3.154E1,5.944859E-1,6.6E-1,-4.2788003E-2,5.916418E-1,3E0,-4.280162E-2,3.2E-1,3.7E-1,-4.2774063E-2,3.503E1,-4.2365093E-2,5.7721215E-1,5.8731556E-1,-4.236835E-2,5.891516E-1,4E-1,-4.242734E-2,5.8617455E-1,3.3E-1,-4.26023E-2,1.7014983E-1,5.8340377E-1,3.821961E-1,-4.227592E-2],"split_indices":[7,4,0,3,10,4,12,12,4,0,12,3,12,0,4,0,0,10,0,4,4,0,12,0,0,0,0,0,4,0,0,4,0,0,0,0,0],"split_type":[0,0,0,0,0,0,0,0,0,0,0,0,0,0,0,0,0,0,0,0,0,0,0,0,0,0,0,0,0,0,0,0,0,0,0,0,0],"sum_hessian":[1.833722E4,6.717385E3,1.1619836E4,5.206152E3,1.511233E3,4.0132844E3,1.1928676E3,8.0418604E2,7.07047E2,3.2005752E3,8.1270917E2,3.5170605E2,8.4116156E2,6.7433307E2,1.2985298E2,5.4661084E2,1.6043611E2,1.720928E2,6.406164E2,1.7597836E2,1.7572768E2,4.7516666E2,3.6599487E2,9.764042E1,3.2212563E1,7.382568E1,9.826712E1,9.588565E1,8.009272E1,1.11177216E2,6.455047E1,1.8437619E2,1.816187E2,3.0708475E1,4.9384243E1,1.012753E2,8.310089E1],"tree_param":{"num_deleted":"0","num_feature":"15","num_nodes":"37","size_leaf_vector":"1"}},{"base_weights":[1.3880534E-3,-4.1277252E-2,1.8139601E0,5.800745E0,-4.12446E-2,1.1089609E1,-4.1135214E-2,-4.086726E-2,1.2810012E0],"categories":[],"categories_nodes":[],"categories_segments":[],"categories_sizes":[],"default_left":[0,0,0,0,0,0,0,0,0],"id":5,"left_children":[1,-1,3,5,-1,7,-1,-1,-1],"loss_changes":[8.272964E3,0E0,1.8196975E4,2.4140213E4,0E0,2.2469824E4,0E0,0E0,0E0],"parents":[2147483647,0,0,2,2,3,3,5,5],"right_children":[2,-1,4,6,-1,8,-1,-1,-1],"split_conditions":[7.1E-1,-4.1277252E-2,3.2E-1,7.2E-1,-4.12446E-2,2.274E1,-4.1135214E-2,-4.086726E-2,1.2810012E0],"split_indices":[3,0,4,3,0,12,0,0,0],"split_type":[0,0,0,0,0,0,0,0,0],"sum_hessian":[8.820092E3,6.8621274E3,1.9579639E3,7.2158356E2,1.2363802E3,3.922921E2,3.2929144E2,1.17139015E2,2.751531E2],"tree_param":{"num_deleted":"0","num_feature":"15","num_nodes":"9","size_leaf_vector":"1"}},{"base_weights":[-1.2996104E-3,1.7834386E0,-4.0874194E-2,-2.7900976E-1,4.300626E0,-4.0783115E-2,1.2706956E-1,-4.0656116E-2,6.8258786E0,1.0691844E0,-4.0587865E-2,1.9505117E0,8.075607E-1,-3.9571315E-2,1.8348722E0,1.7760372E-1,1.3174166E-1,1.9562964E0,7.046411E-2,1.6599452E-1,1.1504826E-1],"categories":[],"categories_nodes":[],"categories_segments":[],"categories_sizes":[],"default_left":[0,0,0,0,0,0,0,0,0,0,0,0,0,0,0,0,0,0,0,0,0],"id":6,"left_children":[1,3,-1,5,7,-1,9,-1,11,13,-1,15,-1,-1,17,-1,-1,19,-1,-1,-1],"loss_changes":[5.631322E3,7.141102E3,0E0,7.10262E1,7.5259297E3,0E0,1.6489624E2,0E0,6.452539E3,1.3395674E2,0E0,9.407654E0,0E0,0E0,6.6553955E0,0E0,0E0,6.864166E-1,0E0,0E0,0E0],"parents":[2147483647,0,0,1,1,3,3,4,4,6,6,8,8,9,9,11,11,14,14,17,17],"right_children":[2,4,-1,6,8,-1,10,-1,12,14,-1,16,-1,-1,18,-1,-1,20,-1,-1,-1],"split_conditions":[2E1,2.87E1,-4.0874194E-2,2.43E1,8.5E1,-4.0783115E-2,1.17E2,-4.0656116E-2,1.17E2,8.5E1,-4.0587865E-2,1.9E1,8.075607E-1,-3.9571315E-2,1.1E2,1.7760372E-1,1.3174166E-1,2.821E1,7.046411E-2,1.6599452E-1,1.1504826E-1],"split_indices":[8,12,0,12,14,0,7,0,7,14,0,8,0,0,7,0,0,12,0,0,0],"split_type":[0,0,0,0,0,0,0,0,0,0,0,0,0,0,0,0,0,0,0,0,0],"sum_hessian":[6.18945E3,1.3742107E3,4.8152397E3,7.5579895E2,6.1841174E2,4.8191336E2,2.738856E2,2.1319142E2,4.052203E2,1.10002884E2,1.638827E2,1.6329016E2,2.4193016E2,3.6230267E1,7.377261E1,8.299948E1,8.029067E1,6.441877E1,9.353843E0,4.981662E1,1.4602153E1],"tree_param":{"num_deleted":"0","num_feature":"15","num_nodes":"21","size_leaf_vector":"1"}},{"base_weights":[-1.5457151E-3,-2.8986284E-1,1.002517E0,-3.8025877E-1,2.5457072E-1,-4.0706706E-1,2.1614566E0,-5.0756055E-1,-2.4604963E-1,8.3375067E-1,-3.3066833E-1,-4.2485118E-2,5.743952E-1,3.440661E0,6.20654E-1,-4.2510036E-2,-1.5893044E-1,-7.918203E-2,-4.2493876E-2,-4.2333312E-2,1.411129E0,-5.1071906E-1,-1.7555779E-1,1.1384913E-1,4.875105E0,7.180996E0,1.824849E0,7.047556E-2,5.4490767E0,-4.216264E-2,8.003052E-2,-4.2474523E-2,1.4763294E-1,-4.2239483E-2,2.1695085E0,-4.2379983E-2,-3.7413806E-1,-4.2241033E-2,3.4381934E-2,-4.1435633E-2,3.5424417E-1,5.387738E-1,3.0724946E-1,6.672114E-1,5.38508E-1,-4.227331E-2,2.146662E-1,-4.2288993E-2,2.8975296E-1,6.4881355E-1,3.474502E-1,-4.1677445E-2,3.0657446E-1,-1.064376E-1,2.686666E-1,1.7731814E0,2.1976596E-1,-7.060533E-2,-4.115889E-2,-4.154311E-2,1.4741008E-1,3.805434E-1,1.4174376E-1,3.205696E-1,2.6384065E-1,2.0161126E-2,3.6961094E-2,-4.236083E-2,1.8255008E-2,1.38404155E-2,2.2322418E-2,1.0492721E-1,1.5774569E-1,-3.326673E-2,4.755255E-3,-1.223729E-3,2.1596452E-2,2.290631E-2,3.2654706E-2,-2.3199786E-3,1.7397003E-2,2.2900257E-2,2.8546197E-2,1.5956266E-2,2.4277955E-2],"categories":[],"categories_nodes":[],"categories_segments":[],"categories_sizes":[],"default_left":[0,0,0,0,0,0,0,0,0,0,0,0,0,0,0,0,0,0,0,0,0,0,0,0,0,0,0,0,0,0,0,0,0,0,0,0,0,0,0,0,0,0,0,0,0,0,0,0,0,0,0,0,0,0,0,0,0,0,0,0,0,0,0,0,0,0,0,0,0,0,0,0,0,0,0,0,0,0,0,0,0,0,0,0,0],"id":7,"left_children":[1,3,5,7,9,11,13,15,17,19,21,-1,23,25,27,-1,29,31,-1,-1,33,35,37,39,41,43,45,47,49,-1,51,-1,53,-1,55,-1,57,-1,59,-1,61,-1,-1,-1,-1,-1,-1,-1,63,-1,-1,-1,65,67,69,71,-1,73,-1,-1,75,77,79,81,83,-1,-1,-1,-1,-1,-1,-1,-1,-1,-1,-1,-1,-1,-1,-1,-1,-1,-1,-1,-1],"loss_changes":[4.727314E3,6.245005E2,5.952365E3,1.8570386E2,6.12828E2,2.0044101E2,3.9383818E3,4.619934E1,2.520206E2,7.158111E2,2.49609E1,0E0,3.6508716E2,6.586965E3,2.4118037E3,0E0,3.1637037E1,3.4277582E2,0E0,0E0,9.403313E2,7.9120636E-1,3.5955048E1,2.5686163E1,7.3880005E0,1.13896484E2,1.5452454E3,1.07372856E2,2.368584E2,0E0,2.9845955E1,0E0,6.852798E1,0E0,9.980127E1,0E0,2.241897E0,0E0,1.9108534E1,0E0,5.7798195E-1,0E0,0E0,0E0,0E0,0E0,0E0,0E0,3.3481598E-1,0E0,0E0,0E0,1.1624193E0,1.0194513E2,1.4025269E0,2.2325928E1,0E0,9.011555E-1,0E0,0E0,5.093784E0,9.47237E-2,2.2547266E-1,1.6565895E-1,7.3763084E-1,0E0,0E0,0E0,0E0,0E0,0E0,0E0,0E0,0E0,0E0,0E0,0E0,0E0,0E0,0E0,0E0,0E0,0E0,0E0,0E0],"parents":[2147483647,0,0,1,1,2,2,3,3,4,4,5,5,6,6,7,7,8,8,9,9,10,10,12,12,13,13,14,14,16,16,17,17,20,20,21,21,22,22,23,23,24,24,25,25,26,26,27,27,28,28,30,30,32,32,34,34,36,36,38,38,40,40,48,48,52,52,53,53,54,54,55,55,57,57,60,60,61,61,62,62,63,63,64,64],"right_children":[2,4,6,8,10,12,14,16,18,20,22,-1,24,26,28,-1,30,32,-1,-1,34,36,38,40,42,44,46,48,50,-1,52,-1,54,-1,56,-1,58,-1,60,-1,62,-1,-1,-1,-1,-1,-1,-1,64,-1,-1,-1,66,68,70,72,-1,74,-1,-1,76,78,80,82,84,-1,-1,-1,-1,-1,-1,-1,-1,-1,-1,-1,-1,-1,-1,-1,-1,-1,-1,-1,-1],"split_conditions":[7.1E-1,3.6E1,1.26E2,8.5E1,3E0,1.21E2,7.2E-1,3.53E1,6.9E1,1.04E2,1.32E2,-4.2485118E-2,3.503E1,2.274E1,3.503E1,-4.2510036E-2,1.19E2,1.17E2,-4.2493876E-2,-4.2333312E-2,7.5E1,1.19E2,1.9E1,8.5E1,7.5E1,8.5E1,8.5E1,8.5E1,7.5E1,-4.216264E-2,5E1,-4.2474523E-2,1.33E0,-4.2239483E-2,7E-1,-4.2379983E-2,6.9E-1,-4.2241033E-2,5E1,-4.1435633E-2,3.283E1,5.387738E-1,3.0724946E-1,6.672114E-1,5.38508E-1,-4.227331E-2,2.146662E-1,-4.2288993E-2,2.403E1,6.4881355E-1,3.474502E-1,-4.1677445E-2,2.2E2,2.43E1,2.4E-1,6.9E-1,2.1976596E-1,5E1,-4.115889E-2,-4.154311E-2,2E1,2.018E1,3.1E-1,4.2E-1,2.843E1,2.0161126E-2,3.6961094E-2,-4.236083E-2,1.8255008E-2,1.38404155E-2,2.2322418E-2,1.0492721E-1,1.5774569E-1,-3.326673E-2,4.755255E-3,-1.223729E-3,2.1596452E-2,2.290631E-2,3.2654706E-2,-2.3199786E-3,1.7397003E-2,2.2900257E-2,2.8546197E-2,1.5956266E-2,2.4277955E-2],"split_indices":[3,12,7,14,10,7,3,12,13,7,7,0,12,12,12,0,7,7,0,0,14,7,8,14,14,14,14,14,14,0,14,0,6,0,3,0,3,0,14,0,12,0,0,0,0,0,0,0,12,0,0,0,7,12,2,3,0,14,0,0,8,12,0,0,12,0,0,0,0,0,0,0,0,0,0,0,0,0,0,0,0,0,0,0,0],"split_type":[0,0,0,0,0,0,0,0,0,0,0,0,0,0,0,0,0,0,0,0,0,0,0,0,0,0,0,0,0,0,0,0,0,0,0,0,0,0,0,0,0,0,0,0,0,0,0,0,0,0,0,0,0,0,0,0,0,0,0,0,0,0,0,0,0,0,0,0,0,0,0,0,0,0,0,0,0,0,0,0,0,0,0,0,0],"sum_hessian":[1.6328129E4,1.2686115E4,3.6420137E3,1.08801045E4,1.8060106E3,1.6435612E3,1.9984526E3,5.581931E3,5.298174E3,9.0757666E2,8.98434E2,1.4597043E3,1.8385675E2,1.0912104E3,9.072422E2,5.224252E3,3.5767886E2,3.3432046E3,1.9549692E3,2.700431E2,6.3753357E2,4.1443027E2,4.8400372E2,1.6702086E2,1.6835882E1,3.2813245E2,7.6307794E2,8.1536957E2,9.187263E1,1.4048483E2,2.1719402E2,1.117189E3,2.2260156E3,1.7928542E2,4.5824817E2,3.6057776E2,5.3852524E1,1.8028888E2,3.0371484E2,4.5601826E1,1.2141904E2,4.0138526E0,1.2822029E1,8.674381E1,2.4138863E2,2.040375E2,5.5904047E2,2.1797449E2,5.973951E2,2.5086578E1,6.678605E1,5.8981335E1,1.5821269E2,7.180336E2,1.507982E3,2.7427994E2,1.8396825E2,1.7727848E1,3.6124672E1,5.0730637E1,2.529842E2,1.06924576E2,1.4494468E1,2.6591772E2,3.3147733E2,1.1952361E2,3.868908E1,3.1698285E2,4.0105078E2,1.5007349E2,1.3579086E3,8.495988E1,1.8932005E2,4.459836E0,1.3268013E1,1.087085E2,1.442757E2,2.7650984E1,7.927359E1,4.2368445E0,1.0257624E1,1.4260326E2,1.2331447E2,1.2955824E2,2.0191908E2],"tree_param":{"num_deleted":"0","num_feature":"15","num_nodes":"85","size_leaf_vector":"1"}},{"base_weights":[-2.3931044E-4,7.193133E-1,-5.7672846E-1,-7.195856E-2,9.004161E-2,-1.1989427E-1,-8.291554E-1,-7.9654837E-1,5.7655257E-1,-5.207569E-1,-7.1967155E-2,-5.13998E-1,-8.837403E-1,9.002632E-2,-7.192906E-2,2.3768999E-1,-7.1946025E-2,2.3369706E-1,-7.19002E-2,-7.3292685E-1,-7.195499E-2,-7.185714E-2,8.99365E-2,-7.165951E-2,8.974503E-2,-3.302985E-1,-7.1757294E-2,-7.12544E-2,8.781502E-2],"categories":[],"categories_nodes":[],"categories_segments":[],"categories_sizes":[],"default_left":[0,0,0,0,0,0,0,0,0,0,0,0,0,0,0,0,0,0,0,0,0,0,0,0,0,0,0,0,0],"id":8,"left_children":[1,3,5,-1,-1,7,9,11,13,15,-1,17,19,-1,-1,21,-1,23,-1,25,-1,-1,-1,-1,-1,27,-1,-1,-1],"loss_changes":[2.9987117E4,2.114524E4,4.628087E3,0E0,0E0,6.732566E3,5.609121E2,1.7792432E2,5.702335E3,1.3810332E3,0E0,4.9262326E2,1.2282715E1,0E0,0E0,1.6140673E3,0E0,5.849932E2,0E0,3.444452E1,0E0,0E0,0E0,0E0,0E0,1.2464235E2,0E0,0E0,0E0],"parents":[2147483647,0,0,1,1,2,2,5,5,6,6,7,7,8,8,9,9,11,11,12,12,15,15,17,17,19,19,25,25],"right_children":[2,4,6,-1,-1,8,10,12,14,16,-1,18,20,-1,-1,22,-1,24,-1,26,-1,-1,-1,-1,-1,28,-1,-1,-1],"split_conditions":[3.5E-1,2E0,1.19E2,-7.195856E-2,9.004161E-2,3E0,2E1,4.3E-1,5.9E-1,4.5E-1,-7.1967155E-2,2.407E1,4.5E-1,9.002632E-2,-7.192906E-2,2.65E1,-7.1946025E-2,2E0,-7.19002E-2,2.365E1,-7.195499E-2,-7.185714E-2,8.99365E-2,-7.165951E-2,8.974503E-2,2E0,-7.1757294E-2,-7.12544E-2,8.781502E-2],"split_indices":[4,10,7,0,0,10,8,4,4,4,0,12,4,0,0,12,0,10,0,12,0,0,0,0,0,10,0,0,0],"split_type":[0,0,0,0,0,0,0,0,0,0,0,0,0,0,0,0,0,0,0,0,0,0,0,0,0,0,0,0,0],"sum_hessian":[7.228849E4,3.2154281E4,4.0134215E4,6.4497183E3,2.5704562E4,1.4284481E4,2.5849732E4,7.2451934E3,7.0392886E3,4.807909E3,2.1041824E4,1.7104443E3,5.534749E3,5.131333E3,1.9079553E3,1.6008258E3,3.2070833E3,5.8117584E2,1.1292686E3,5.268603E2,5.0078887E3,7.016575E2,8.9916833E2,2.5577661E2,3.253992E2,1.5356473E2,3.732956E2,1.106061E2,4.2958622E1],"tree_param":{"num_deleted":"0","num_feature":"15","num_nodes":"29","size_leaf_vector":"1"}},{"base_weights":[-4.2216416E-4,-4.3966644E-2,7.9729646E-1,2.0419147E0,-2.6204917E-1,-3.105572E-1,3.35257E0,5.153122E-1,-4.395685E-2,-4.8251918E-1,4.1921923E-1,-4.3893646E-2,4.5442743E0,1.5666134E0,-4.3897223E-2,-4.392212E-2,-1.6582064E-1,3.331432E0,-4.3746427E-2,4.820877E0,-4.3519076E-2,-4.3789845E-2,2.9712307E0,4.6995074E-1,-4.360838E-2,4.3396503E-1,-4.2110395E-2,2.8273847E0,4.4270134E-1,-4.348739E-2,4.1234937E0,-4.3058865E-2,1.911914E-1,3.815608E-1,3.995196E-2,3.5481507E-1,-4.15385E-2],"categories":[],"categories_nodes":[],"categories_segments":[],"categories_sizes":[],"default_left":[0,0,0,0,0,0,0,0,0,0,0,0,0,0,0,0,0,0,0,0,0,0,0,0,0,0,0,0,0,0,0,0,0,0,0,0,0],"id":9,"left_children":[1,-1,3,5,7,9,11,13,-1,15,17,-1,19,21,-1,-1,23,25,-1,27,-1,-1,29,31,-1,-1,-1,33,-1,-1,35,-1,-1,-1,-1,-1,-1],"loss_changes":[1.0529145E4,0E0,1.2921418E4,1.3894551E4,1.183244E3,2.0264442E2,1.345685E4,1.6001417E3,0E0,2.7346893E1,8.687385E2,0E0,3.1231094E3,2.1380488E3,0E0,0E0,5.5331985E1,6.2429724E2,0E0,2.9717227E3,0E0,0E0,1.7538538E3,1.6749359E2,0E0,0E0,0E0,2.5106729E3,0E0,0E0,4.7414697E2,0E0,0E0,0E0,0E0,0E0,0E0],"parents":[2147483647,0,0,2,2,3,3,4,4,5,5,6,6,7,7,9,9,10,10,12,12,13,13,16,16,17,17,19,19,22,22,23,23,27,27,30,30],"right_children":[2,-1,4,6,8,10,12,14,-1,16,18,-1,20,22,-1,-1,24,26,-1,28,-1,-1,30,32,-1,-1,-1,34,-1,-1,36,-1,-1,-1,-1,-1,-1],"split_conditions":[1E2,-4.3966644E-2,2.43E1,1.21E2,2E1,6E-1,3.5E-1,2.87E1,-4.395685E-2,6.6E0,2E1,-4.3893646E-2,6.7E-1,1.17E2,-4.3897223E-2,-4.392212E-2,3.7E-1,6.3E-1,-4.3746427E-2,6.8E1,-4.3519076E-2,-4.3789845E-2,3.5E-1,3.3E-1,-4.360838E-2,4.3396503E-1,-4.2110395E-2,6.29E0,4.4270134E-1,-4.348739E-2,6.3E-1,-4.3058865E-2,1.911914E-1,3.815608E-1,3.995196E-2,3.5481507E-1,-4.15385E-2],"split_indices":[14,0,12,7,8,4,4,12,0,5,8,0,4,7,0,0,4,4,0,13,0,0,4,4,0,0,0,5,0,0,4,0,0,0,0,0,0],"split_type":[0,0,0,0,0,0,0,0,0,0,0,0,0,0,0,0,0,0,0,0,0,0,0,0,0,0,0,0,0,0,0,0,0,0,0,0,0],"sum_hessian":[2.4033035E4,1.4234345E4,9.79869E3,4.5049824E3,5.2937075E3,1.6121141E3,2.8928684E3,1.4286095E3,3.8650981E3,1.3050682E3,3.070459E2,6.770124E2,2.215856E3,7.184118E2,7.1019763E2,1.0776998E3,2.2736838E2,7.589899E1,2.3114691E2,2.101679E3,1.1417704E2,2.870033E2,4.314085E2,8.4770294E1,1.4259808E2,4.8956486E1,2.6942497E1,5.549497E2,1.5467292E3,1.0662E2,3.247885E2,5.602068E1,2.8749615E1,3.019531E2,2.5299661E2,3.0441736E2,2.0371155E1],"tree_param":{"num_deleted":"0","num_feature":"15","num_nodes":"37","size_leaf_vector":"1"}},{"base_weights":[-1.5112279E-2,-4.1213293E-2,2.429072E0,4.197438E0,-4.1154385E-2,4.275428E-1,-4.2621974E-2],"categories":[],"categories_nodes":[],"categories_segments":[],"categories_sizes":[],"default_left":[0,0,0,0,0,0,0],"id":10,"left_children":[1,-1,3,5,-1,-1,-1],"loss_changes":[1.0985239E4,0E0,7.948323E3,5.1772246E3,0E0,0E0,0E0],"parents":[2147483647,0,0,2,2,3,3],"right_children":[2,-1,4,6,-1,-1,-1],"split_conditions":[7.2E-1,-4.1213293E-2,3.3E-1,3.063E1,-4.1154385E-2,4.275428E-1,-4.2621974E-2],"split_indices":[3,0,4,12,0,0,0],"split_type":[0,0,0,0,0,0,0],"sum_hessian":[8.986045E3,7.460531E3,1.5255144E3,9.527433E2,5.727711E2,7.6673785E2,1.860054E2],"tree_param":{"num_deleted":"0","num_feature":"15","num_nodes":"7","size_leaf_vector":"1"}},{"base_weights":[1.2950208E-3,-2.6565424E-1,8.3596003E-1,3.668663E-1,-4.2916816E-2,-1.5710671E-1,1.3036108E0,1.4824194E0,-4.2796303E-2,-4.137789E-1,4.5149752E-1,2.2334454E0,6.714571E-1,-1.1729068E-1,2.222013E0,-2.2642206E-1,-4.2826515E-2,1.2481319E0,8.55373E-3,1.856774E0,4.064345E0,1.2714171E-1,-4.3198176E-2,-4.2708635E-2,7.950246E-1,1.5495847E-1,3.059323E0,-4.265792E-2,2.289055E-1,3.549649E-1,1.4957666E-1,4.6007374E-1,-4.273885E-2,1.7504746E0,2.2208665E-1,2.223614E-1,4.241761E-1,9.418637E-1,4.916018E-1,2.3144226E-1,2.6279372E-1,4.9302068E-1,-3.588907E-2,-9.262544E-3,3.367562E-2,6.784028E-2,4.849695E-1,1.2751922E-1,1.5375903E-1,5.6785405E-2,7.8405224E-2,4.535272E-2,1.9609367E-2,3.3249743E-2,4.7081776E-2,1.7080036E-3,-1.3292468E-2,9.860675E-3,-9.542789E-5,3.98437E-2,2.0921052E-2],"categories":[],"categories_nodes":[],"categories_segments":[],"categories_sizes":[],"default_left":[0,0,0,0,0,0,0,0,0,0,0,0,0,0,0,0,0,0,0,0,0,0,0,0,0,0,0,0,0,0,0,0,0,0,0,0,0,0,0,0,0,0,0,0,0,0,0,0,0,0,0,0,0,0,0,0,0,0,0,0,0],"id":11,"left_children":[1,3,5,7,-1,9,11,13,-1,15,17,19,21,23,25,27,-1,29,31,33,35,-1,-1,-1,37,-1,39,-1,41,43,-1,45,-1,47,-1,-1,-1,49,51,-1,-1,53,55,-1,-1,57,59,-1,-1,-1,-1,-1,-1,-1,-1,-1,-1,-1,-1,-1,-1],"loss_changes":[4.2133213E3,2.4543044E3,2.128388E3,4.3223447E3,0E0,2.2948013E2,1.8294722E3,2.2727378E3,0E0,2.3329605E1,1.536359E2,8.610698E2,2.0647012E3,2.315036E2,3.0704004E2,5.722665E1,0E0,8.551668E1,6.914278E1,9.702222E1,3.2507153E2,0E0,0E0,0E0,7.901329E0,0E0,2.324707E0,0E0,1.1605582E1,2.103262E0,0E0,1.4167595E0,0E0,2.1852783E1,0E0,0E0,0E0,2.6437378E-1,9.7870064E-1,0E0,0E0,2.676239E-1,6.3807124E-1,0E0,0E0,5.2908164E-2,2.1608353E-1,0E0,0E0,0E0,0E0,0E0,0E0,0E0,0E0,0E0,0E0,0E0,0E0,0E0,0E0],"parents":[2147483647,0,0,1,1,2,2,3,3,5,5,6,6,7,7,9,9,10,10,11,11,12,12,13,13,14,14,15,15,17,17,18,18,19,19,20,20,24,24,26,26,28,28,29,29,31,31,33,33,37,37,38,38,41,41,42,42,45,45,46,46],"right_children":[2,4,6,8,-1,10,12,14,-1,16,18,20,22,24,26,28,-1,30,32,34,36,-1,-1,-1,38,-1,40,-1,42,44,-1,46,-1,48,-1,-1,-1,50,52,-1,-1,54,56,-1,-1,58,60,-1,-1,-1,-1,-1,-1,-1,-1,-1,-1,-1,-1,-1,-1],"split_conditions":[7.1E-1,1.04E2,2.403E1,3E0,-4.2916816E-2,2.183E1,1.21E2,2.407E1,-4.2796303E-2,1.21E2,1.04E2,3.594E1,7.2E-1,2.187E1,3.507E1,2.018E1,-4.2826515E-2,7.2E-1,7.2E-1,3.503E1,7.2E-1,1.2714171E-1,-4.3198176E-2,-4.2708635E-2,7E-1,1.5495847E-1,7E-1,-4.265792E-2,7.2E-1,2.4E-1,1.4957666E-1,2.1E-1,-4.273885E-2,7.2E-1,2.2208665E-1,2.223614E-1,4.241761E-1,2.5E-1,6.1E-1,2.3144226E-1,2.6279372E-1,4.9E-1,4.9E-1,-9.262544E-3,3.367562E-2,1.87E2,6.6E-1,1.2751922E-1,1.5375903E-1,5.6785405E-2,7.8405224E-2,4.535272E-2,1.9609367E-2,3.3249743E-2,4.7081776E-2,1.7080036E-3,-1.3292468E-2,9.860675E-3,-9.542789E-5,3.98437E-2,2.0921052E-2],"split_indices":[3,7,12,10,0,12,7,12,0,7,7,12,3,12,12,12,0,3,3,12,3,0,0,0,3,0,3,0,3,0,0,0,0,3,0,0,0,2,0,0,0,0,0,0,0,7,0,0,0,0,0,0,0,0,0,0,0,0,0,0,0],"split_type":[0,0,0,0,0,0,0,0,0,0,0,0,0,0,0,0,0,0,0,0,0,0,0,0,0,0,0,0,0,0,0,0,0,0,0,0,0,0,0,0,0,0,0,0,0,0,0,0,0,0,0,0,0,0,0,0,0,0,0,0,0],"sum_hessian":[1.8907402E4,1.4326082E4,4.5813203E3,4.294563E3,1.0031519E4,1.4668605E3,3.11446E3,1.9195469E3,2.3750159E3,1.0320775E3,4.34783E2,1.2593668E3,1.8550933E3,6.071067E2,1.3124402E3,4.075616E2,6.2451587E2,1.5463263E2,2.8015036E2,1.0462004E3,2.1316635E2,1.0553232E3,7.9976996E2,4.1715588E2,1.8995082E2,9.8169165E2,3.307486E2,2.435231E2,1.640385E2,6.416437E1,9.046827E1,1.5311668E2,1.2703368E2,9.4046747E2,1.0573305E2,1.0623078E2,1.0693557E2,1.2636416E2,6.3586666E1,1.9861267E2,1.3213591E2,8.188217E1,8.215633E1,7.6086807E0,5.6555683E1,9.600595E0,1.4351608E2,4.974676E2,4.4299988E2,2.1000479E1,1.0536368E2,4.739931E1,1.6187353E1,4.8762142E1,3.312003E1,5.712438E1,2.5031952E1,5.6932626E0,3.9073324E0,1.339981E2,9.517986E0],"tree_param":{"num_deleted":"0","num_feature":"15","num_nodes":"61","size_leaf_vector":"1"}},{"base_weights":[-2.2194467E-1,3.762411E-1,-5.7585603E-1,-3.9862428E-2,1.4601119E0,-3.9974663E-2,-6.924254E-1,1.1278561E0,9.796416E-1,-3.9184757E-2,-7.459185E-1,-3.857866E-2,1.3407522E0,-3.3665434E-2,-6.0379066E-2,-2.9931769E-2,1.1174796E-1],"categories":[],"categories_nodes":[],"categories_segments":[],"categories_sizes":[],"default_left":[0,0,0,0,0,0,0,0,0,0,0,0,0,0,0,0,0],"id":12,"left_children":[1,3,5,-1,7,-1,9,-1,11,-1,13,-1,15,-1,-1,-1,-1],"loss_changes":[2.0609775E2,3.4391138E2,4.96402E0,0E0,9.680035E2,0E0,2.0964203E0,0E0,8.3659454E1,0E0,9.932709E-2,0E0,1.2774261E1,0E0,0E0,0E0,0E0],"parents":[2147483647,0,0,1,1,2,2,4,4,6,6,8,8,10,10,12,12],"right_children":[2,4,6,-1,8,-1,10,-1,12,-1,14,-1,16,-1,-1,-1,-1],"split_conditions":[1.19E2,3.53E1,3.594E1,-3.9862428E-2,3.558E1,-3.9974663E-2,6E-1,1.1278561E0,6E-1,-3.9184757E-2,4E0,-3.857866E-2,4E0,-3.3665434E-2,-6.0379066E-2,-2.9931769E-2,1.1174796E-1],"split_indices":[7,12,12,0,12,0,4,0,4,0,10,0,10,0,0,0,0],"split_type":[0,0,0,0,0,0,0,0,0,0,0,0,0,0,0,0,0],"sum_hessian":[9.7139734E2,3.6095712E2,6.104402E2,2.0001941E2,1.609377E2,3.7290695E2,2.3753326E2,4.8487062E0,1.5608899E2,5.212509E1,1.8540817E2,3.079798E1,1.25291016E2,6.4832892E0,1.7892488E2,3.732611E0,1.215584E2],"tree_param":{"num_deleted":"0","num_feature":"15","num_nodes":"17","size_leaf_vector":"1"}},{"base_weights":[3.062768E-3,-5.658376E-1,4.4787908E-1,-4.8480857E-2,-2.016482E-1,-4.8432168E-2,8.837271E-1,-4.8502296E-2,7.123825E-1,1.2453035E-1,1.2376509E0,1.3642435E0,-4.874567E-2,-4.8444066E-2,1.5026776E0,1.3834982E0,-7.162648E-2,1.15038395E-1,1.03024945E-1,9.9152155E-2,2.0138214E0,1.4853674E0,9.584895E-1,-4.9935117E-2,7.161604E-1,1.9166796E-1,9.797897E-2,1.3881639E0,1.8341361E0,1.4766659E0,-6.0295276E-2,9.946627E-2,-4.9627393E-2,1.1832457E-1,9.88387E-2,1.17870554E-1,1.8260343E-1,1.2385888E-1,1.0086795E-1,-4.9690556E-2,1.3903089E-1],"categories":[],"categories_nodes":[],"categories_segments":[],"categories_sizes":[],"default_left":[0,0,0,0,0,0,0,0,0,0,0,0,0,0,0,0,0,0,0,0,0,0,0,0,0,0,0,0,0,0,0,0,0,0,0,0,0,0,0,0,0],"id":13,"left_children":[1,3,5,-1,7,-1,9,-1,11,13,15,17,-1,-1,19,21,23,-1,-1,-1,25,27,29,-1,31,-1,-1,33,35,37,39,-1,-1,-1,-1,-1,-1,-1,-1,-1,-1],"loss_changes":[1.0992079E4,2.786582E2,1.1191439E4,0E0,7.014079E2,0E0,4.6328203E3,0E0,5.0231476E2,5.518446E3,2.2458867E3,7.4157715E-2,0E0,0E0,2.5277588E2,4.5646484E2,5.1392126E2,0E0,0E0,0E0,1.9083228E2,2.8643555E2,1.0818667E3,0E0,3.4373386E2,0E0,0E0,9.0575195E1,2.966006E2,1.8746094E1,6.985068E2,0E0,0E0,0E0,0E0,0E0,0E0,0E0,0E0,0E0,0E0],"parents":[2147483647,0,0,1,1,2,2,4,4,6,6,8,8,9,9,10,10,11,11,14,14,15,15,16,16,20,20,21,21,22,22,24,24,27,27,28,28,29,29,30,30],"right_children":[2,4,6,-1,8,-1,10,-1,12,14,16,18,-1,-1,20,22,24,-1,-1,-1,26,28,30,-1,32,-1,-1,34,36,38,40,-1,-1,-1,-1,-1,-1,-1,-1,-1,-1],"split_conditions":[3.6E-1,7.2E-1,2.1E1,-4.8480857E-2,3.063E1,-4.8432168E-2,2.407E1,-4.8502296E-2,3.503E1,3E0,6.6E-1,3.283E1,-4.874567E-2,-4.8444066E-2,5.7E-1,3.6E1,3E0,1.15038395E-1,1.03024945E-1,9.9152155E-2,6.6E-1,5.9E-1,5.5E-1,-4.9935117E-2,3.438E1,1.9166796E-1,9.797897E-2,3E0,3E0,3E0,3E0,9.946627E-2,-4.9627393E-2,1.1832457E-1,9.88387E-2,1.17870554E-1,1.8260343E-1,1.2385888E-1,1.0086795E-1,-4.9690556E-2,1.3903089E-1],"split_indices":[4,3,8,0,12,0,12,0,12,10,4,12,0,0,4,12,10,0,0,0,4,4,4,0,12,0,0,10,10,10,10,0,0,0,0,0,0,0,0,0,0],"split_type":[0,0,0,0,0,0,0,0,0,0,0,0,0,0,0,0,0,0,0,0,0,0,0,0,0,0,0,0,0,0,0,0,0,0,0,0,0,0,0,0,0],"sum_hessian":[4.3435355E4,1.9059105E4,2.437625E4,1.7164752E4,1.8943538E3,7.134418E3,1.7241832E4,1.3133815E3,5.809722E2,5.4826704E3,1.1759161E4,3.8910837E2,1.9186388E2,3.5843362E3,1.8983341E3,1.0580557E4,1.1786042E3,1.8831339E2,2.0079498E2,1.2553561E3,6.429779E2,8.532655E3,2.0479015E3,6.929183E2,4.8568597E2,4.31775E2,2.1120293E2,6.6770083E3,1.855647E3,1.357232E3,6.906694E2,3.4840585E2,1.372801E2,4.179521E3,2.4974873E3,1.030829E3,8.248181E2,1.01424567E3,3.4298642E2,5.270099E2,1.6365947E2],"tree_param":{"num_deleted":"0","num_feature":"15","num_nodes":"41","size_leaf_vector":"1"}},{"base_weights":[-4.502834E-3,7.9732025E-1,-4.2722724E-2,1.5217702E0,-1.316189E-1,2.6993093E0,1.011776E0,-4.264184E-2,-3.3279594E-3,3.9118667E0,2.1330025E0,1.2938706E0,-8.498595E-3,3.053917E-2,-7.574452E-3,3.4326777E-1,2.959158E-1,1.8353366E0,2.074876E-1,1.1856852E0,2.64186E-1,4.279389E-2,-7.340079E-2,2.0061433E-2,1.7135069E-2,-1.9277336E-2,1.9671766E-3,1.2769628E-1,1.6008003E-1,7.017068E-1,1.4437915E0,-4.1949157E-2,-1.8134559E-2,4.2339966E-2,-5.879643E-2,-1.0049191E-2,-1.7411159E-1,3.336216E-2,-1.0435499E-2,3.56393E-2,7.243271E-2,1.0440239E-1,1.5867501E-1,-4.013498E-4,-7.987439E-3,1.4299327E-4,7.1693687E-3,-6.6786627E-3,9.36647E-3,1.1546516E-4,-1.8707615E-3,-1.0547144E-2,-2.2225913E-2,-6.781032E-3,3.9922562E-3,7.888011E-4,-2.076889E-3],"categories":[],"categories_nodes":[],"categories_segments":[],"categories_sizes":[],"default_left":[0,0,0,0,0,0,0,0,0,0,0,0,0,0,0,0,0,0,0,0,0,0,0,0,0,0,0,0,0,0,0,0,0,0,0,0,0,0,0,0,0,0,0,0,0,0,0,0,0,0,0,0,0,0,0,0,0],"id":14,"left_children":[1,3,-1,5,7,9,11,-1,13,15,17,19,21,23,25,-1,-1,27,-1,29,-1,-1,31,33,-1,35,37,-1,-1,39,41,-1,43,45,47,49,51,53,55,-1,-1,-1,-1,-1,-1,-1,-1,-1,-1,-1,-1,-1,-1,-1,-1,-1,-1],"loss_changes":[7.8008657E3,4.9180557E3,0E0,2.4625703E3,1.6487302E2,8.426416E2,8.251909E2,0E0,3.471525E-1,1.50859375E1,1.1100635E2,4.836123E2,2.1924557E1,4.8819974E-1,2.43087E-1,0E0,0E0,1.6983765E1,0E0,2.651731E2,0E0,0E0,1.3806652E1,4.4930443E-1,0E0,1.3735487E0,4.647109E-1,0E0,0E0,3.828308E1,1.0115234E2,0E0,5.2171576E-1,3.7530214E-1,2.48084E-1,1.4356503E-1,1.6000295E-1,6.622717E-1,2.6942092E-1,0E0,0E0,0E0,0E0,0E0,0E0,0E0,0E0,0E0,0E0,0E0,0E0,0E0,0E0,0E0,0E0,0E0,0E0],"parents":[2147483647,0,0,1,1,3,3,4,4,5,5,6,6,8,8,9,9,10,10,11,11,12,12,13,13,14,14,17,17,19,19,22,22,23,23,25,25,26,26,29,29,30,30,32,32,33,33,34,34,35,35,36,36,37,37,38,38],"right_children":[2,4,-1,6,8,10,12,-1,14,16,18,20,22,24,26,-1,-1,28,-1,30,-1,-1,32,34,-1,36,38,-1,-1,40,42,-1,44,46,48,50,52,54,56,-1,-1,-1,-1,-1,-1,-1,-1,-1,-1,-1,-1,-1,-1,-1,-1,-1,-1],"split_conditions":[1.21E2,3E0,-4.2722724E-2,2.274E1,1.9E1,2.1E1,3.503E1,-4.264184E-2,2.3E-1,2.018E1,7.1E-1,3.465E1,3.507E1,1.17E2,4.9E-1,3.4326777E-1,2.959158E-1,6.9E-1,2.074876E-1,7E-1,2.64186E-1,4.279389E-2,6.9E-1,9.7E1,1.7135069E-2,5.5E-1,6.6E1,1.2769628E-1,1.6008003E-1,6.9E-1,3.245E1,-4.1949157E-2,5.9E-1,2.87E1,3.558E1,6.9E-1,8.8E1,3.3E-1,5.1E-1,3.56393E-2,7.243271E-2,1.0440239E-1,1.5867501E-1,-4.013498E-4,-7.987439E-3,1.4299327E-4,7.1693687E-3,-6.6786627E-3,9.36647E-3,1.1546516E-4,-1.8707615E-3,-1.0547144E-2,-2.2225913E-2,-6.781032E-3,3.9922562E-3,7.888011E-4,-2.076889E-3],"split_indices":[7,10,0,12,8,8,12,0,0,12,3,12,12,7,1,0,0,3,0,3,0,0,3,7,0,0,7,0,0,3,12,0,2,12,12,3,7,0,1,0,0,0,0,0,0,0,0,0,0,0,0,0,0,0,0,0,0],"split_type":[0,0,0,0,0,0,0,0,0,0,0,0,0,0,0,0,0,0,0,0,0,0,0,0,0,0,0,0,0,0,0,0,0,0,0,0,0,0,0,0,0,0,0,0,0,0,0,0,0,0,0,0,0,0,0,0,0],"sum_hessian":[1.8370746E4,7.306482E3,1.1064264E4,4.104771E3,3.201711E3,1.2391581E3,2.865613E3,7.744943E2,2.4272166E3,3.9255283E2,8.466053E2,2.2447847E3,6.2082825E2,2.6711877E2,2.1600977E3,1.3415103E2,2.584018E2,5.1741736E2,3.2918793E2,2.131606E3,1.1317889E2,6.5299194E1,5.5552905E2,2.5426591E2,1.2852878E1,9.7442175E2,1.1856759E3,2.163533E2,3.0106403E2,7.4282745E2,1.3887784E3,5.9524136E1,4.9600494E2,1.9960553E2,5.4660378E1,9.2122723E2,5.3194523E1,3.3756586E2,8.481101E2,3.306346E2,4.1219287E2,1.1075842E3,2.8119415E2,4.2935968E2,6.664527E1,1.0914127E2,9.0464264E1,4.8891655E1,5.768722E0,4.9125345E2,4.2997382E2,4.0089706E1,1.3104818E1,4.0214043E1,2.973518E2,3.6495486E2,4.8315524E2],"tree_param":{"num_deleted":"0","num_feature":"15","num_nodes":"57","size_leaf_vector":"1"}},{"base_weights":[-1.0262931E-2,-4.1211948E-2,1.3041707E0,2.9493334E0,-4.1194998E-2,4.027397E0,-4.1063596E-2,-4.07994E-2,3.6821383E-1],"categories":[],"categories_nodes":[],"categories_segments":[],"categories_sizes":[],"default_left":[0,0,0,0,0,0,0,0,0],"id":15,"left_children":[1,-1,3,5,-1,7,-1,-1,-1],"loss_changes":[5.996863E3,0E0,7.50658E3,4.9186084E3,0E0,2.6245732E3,0E0,0E0,0E0],"parents":[2147483647,0,0,2,2,3,3,5,5],"right_children":[2,-1,4,6,-1,8,-1,-1,-1],"split_conditions":[7.1E-1,-4.1211948E-2,3.2E-1,7.2E-1,-4.1194998E-2,2.274E1,-4.1063596E-2,-4.07994E-2,3.6821383E-1],"split_indices":[3,0,4,3,0,12,0,0,0],"split_type":[0,0,0,0,0,0,0,0,0],"sum_hessian":[9.034429E3,6.5277446E3,2.5066843E3,1.3159768E3,1.1907076E3,1.00343146E3,3.125453E2,1.1289901E2,8.905325E2],"tree_param":{"num_deleted":"0","num_feature":"15","num_nodes":"9","size_leaf_vector":"1"}},{"base_weights":[-2.636805E-3,-4.09029E-2,8.1665105E-1,2.3878598E-1,5.6199718E0,2.0540535E0,-4.0822707E-2,8.475707E0,3.7749846E0,3.8821423E0,-4.0654447E-2,4.365918E0,7.910397E-1,2.6618104E0,6.8296394E0,7.0906854E0,2.6407192E0,-3.862185E-2,1.2868066E0,-3.9811466E-2,3.535091E-1,8.8210845E-1,3.4378833E-1,8.477095E0,-3.8807936E-2,3.2795782E0,-4.0153272E-2,3.006336E-1,7.9198253E-1,1.96403E-1,5.040884E-1],"categories":[],"categories_nodes":[],"categories_segments":[],"categories_sizes":[],"default_left":[0,0,0,0,0,0,0,0,0,0,0,0,0,0,0,0,0,0,0,0,0,0,0,0,0,0,0,0,0,0,0],"id":16,"left_children":[1,-1,3,5,7,9,-1,11,13,15,-1,17,-1,19,21,23,25,-1,-1,-1,-1,-1,-1,27,-1,29,-1,-1,-1,-1,-1],"loss_changes":[2.5991675E3,0E0,6.6290854E3,2.90225E3,1.3181206E3,2.9225662E3,0E0,5.3490625E2,5.1690015E2,1.4301426E3,0E0,1.5630571E3,0E0,6.531955E2,3.914845E2,1.0649766E3,5.320857E2,0E0,0E0,0E0,0E0,0E0,0E0,5.3466895E2,0E0,5.307886E2,0E0,0E0,0E0,0E0,0E0],"parents":[2147483647,0,0,2,2,3,3,4,4,5,5,7,7,8,8,9,9,11,11,13,13,14,14,15,15,16,16,23,23,25,25],"right_children":[2,-1,4,6,8,10,-1,12,14,16,-1,18,-1,20,22,24,26,-1,-1,-1,-1,-1,-1,28,-1,30,-1,-1,-1,-1,-1],"split_conditions":[4.6E-1,-4.09029E-2,1.38E2,1.33E0,1E2,7E-1,-4.0822707E-2,1.1E2,5.7E-1,1E2,-4.0654447E-2,5.7E-1,7.910397E-1,1.1E2,1.1E2,6.3E-1,6.3E-1,-3.862185E-2,1.2868066E0,-3.9811466E-2,3.535091E-1,8.8210845E-1,3.4378833E-1,1.17E2,-3.8807936E-2,5.9E-1,-4.0153272E-2,3.006336E-1,7.9198253E-1,1.96403E-1,5.040884E-1],"split_indices":[4,0,9,6,14,3,0,7,4,14,0,4,0,7,7,4,4,0,0,0,0,0,0,7,0,4,0,0,0,0,0],"split_type":[0,0,0,0,0,0,0,0,0,0,0,0,0,0,0,0,0,0,0,0,0,0,0,0,0,0,0,0,0,0,0],"sum_hessian":[6.235121E3,3.8471448E3,2.3879763E3,2.132496E3,2.5548012E2,6.224546E2,1.5100416E3,9.8841576E1,1.5663853E2,3.6299255E2,2.59462E2,2.6343542E1,7.249803E1,1.1619793E2,4.0440605E1,9.992841E1,2.6306415E2,1.93061E1,7.0374417E0,4.176245E1,7.443548E1,1.3941604E1,2.6499002E1,8.438055E1,1.5547866E1,2.1861139E2,4.4452755E1,2.0405504E1,6.3975044E1,1.7319424E2,4.541714E1],"tree_param":{"num_deleted":"0","num_feature":"15","num_nodes":"31","size_leaf_vector":"1"}},{"base_weights":[1.7988997E-3,-1.9399425E-1,3.4249418E0,-4.5312047E-1,6.2787646E-1,-4.223126E-2,5.490984E0,-4.2420533E-2,-8.5789494E-2,-4.7323763E-1,1.3636012E0,6.864564E0,1.2735595E0,5.1536036E-1,-4.238779E-2,-4.2371314E-2,-5.1637426E-2,6.6735613E-1,3.7829018E0,5.442734E0,6.212537E-1,4.1710356E-1,-4.193299E-2,3.080951E0,-4.2429216E-2,1.8368444E-1,-2.3033288E-1,1.1556859E0,-4.9754735E-2,5.94753E0,3.3495036E-1,5.5462915E-1,4.9228473E0,-4.1755877E-2,4.4554563E0,2.1270879E-1,-4.2072825E-2,-4.174481E-2,1.3051839E0,2.1885824E-1,-3.534506E-1,5.23892E-1,4.5522478E-1,2.603322E-1,-4.2260017E-2,3.1566516E-1,4.505444E-1,2.976121E-1,3.683503E-1,-1.449984E-2,2.3298141E-1,1.604794E-1,5.1183768E-2,-1.1741442E-2,-4.2400472E-2],"categories":[],"categories_nodes":[],"categories_segments":[],"categories_sizes":[],"default_left":[0,0,0,0,0,0,0,0,0,0,0,0,0,0,0,0,0,0,0,0,0,0,0,0,0,0,0,0,0,0,0,0,0,0,0,0,0,0,0,0,0,0,0,0,0,0,0,0,0,0,0,0,0,0,0],"id":17,"left_children":[1,3,5,7,9,-1,11,-1,13,15,17,19,21,23,-1,-1,25,27,29,31,-1,-1,-1,33,-1,-1,35,37,39,41,43,-1,45,-1,47,49,-1,-1,51,-1,53,-1,-1,-1,-1,-1,-1,-1,-1,-1,-1,-1,-1,-1,-1],"loss_changes":[1.0898141E4,3.275751E3,7.187866E3,3.3123804E2,2.9877239E3,0E0,3.3379395E3,0E0,5.4241125E2,3.5049652E1,3.720609E3,5.145703E2,1.01763086E3,2.3178733E3,0E0,0E0,7.401645E1,6.017281E2,3.6826074E3,9.822656E1,0E0,0E0,0E0,1.2414707E3,0E0,0E0,2.1643818E1,2.5707178E2,5.901589E2,8.401367E0,4.8456912E2,0E0,6.776367E1,0E0,1.8798828E0,7.1290115E1,0E0,0E0,4.3620398E2,0E0,2.28144E1,0E0,0E0,0E0,0E0,0E0,0E0,0E0,0E0,0E0,0E0,0E0,0E0,0E0,0E0],"parents":[2147483647,0,0,1,1,2,2,3,3,4,4,6,6,8,8,9,9,10,10,11,11,12,12,13,13,16,16,17,17,18,18,19,19,23,23,26,26,27,27,28,28,29,29,30,30,32,32,34,34,35,35,38,38,40,40],"right_children":[2,4,6,8,10,-1,12,-1,14,16,18,20,22,24,-1,-1,26,28,30,32,-1,-1,-1,34,-1,-1,36,38,40,42,44,-1,46,-1,48,50,-1,-1,52,-1,54,-1,-1,-1,-1,-1,-1,-1,-1,-1,-1,-1,-1,-1,-1],"split_conditions":[6.6E-1,7.1E-1,1.21E2,5.5E-1,1.26E2,-4.223126E-2,4E0,-4.2420533E-2,3E0,1.21E2,5.3E-1,2.1E1,7.5E1,1E2,-4.238779E-2,-4.2371314E-2,7.5E1,7.2E-1,7.2E-1,1E2,6.212537E-1,4.1710356E-1,-4.193299E-2,1.04E2,-4.2429216E-2,1.8368444E-1,1E2,7.5E1,7.5E1,1E2,1E2,5.5462915E-1,7E-1,-4.1755877E-2,6.9E-1,5.3E-1,-4.2072825E-2,-4.174481E-2,3.2E-1,2.1885824E-1,1E2,5.23892E-1,4.5522478E-1,2.603322E-1,-4.2260017E-2,3.1566516E-1,4.505444E-1,2.976121E-1,3.683503E-1,-1.449984E-2,2.3298141E-1,1.604794E-1,5.1183768E-2,-1.1741442E-2,-4.2400472E-2],"split_indices":[4,3,7,4,7,0,10,0,10,7,4,8,14,14,0,0,14,3,3,14,0,0,0,7,0,0,14,14,14,14,14,0,3,0,3,4,0,0,4,0,14,0,0,0,0,0,0,0,0,0,0,0,0,0,0],"split_type":[0,0,0,0,0,0,0,0,0,0,0,0,0,0,0,0,0,0,0,0,0,0,0,0,0,0,0,0,0,0,0,0,0,0,0,0,0,0,0,0,0,0,0,0,0,0,0,0,0,0,0,0,0,0,0],"sum_hessian":[1.6257877E4,1.5379151E4,8.7872565E2,1.1693042E4,3.6861091E3,3.0187076E2,5.7685486E2,9.663151E3,2.0298906E3,1.4765173E3,2.2095918E3,4.3464365E2,1.4221121E2,8.6223785E2,1.1676528E3,1.3018551E3,1.7466219E2,1.7168271E3,4.9276465E2,1.7137973E2,2.6326392E2,4.3977345E1,9.823387E1,2.4914154E2,6.130963E2,1.1476454E1,1.6318573E2,1.0210514E3,6.9577576E2,3.022548E2,1.9050987E2,4.1086723E1,1.3029301E2,6.895137E1,1.8019019E2,6.527977E1,9.790596E1,8.329139E1,9.3776E2,6.758178E1,6.28194E2,8.31308E1,2.19124E2,4.28715E1,1.4763837E2,5.760827E1,7.2684746E1,3.48366E1,1.4535358E2,5.774818E1,7.531592E0,4.5566882E2,4.8209122E2,2.9050967E2,3.376843E2],"tree_param":{"num_deleted":"0","num_feature":"15","num_nodes":"55","size_leaf_vector":"1"}},{"base_weights":[5.503057E-3,6.842983E-1,-5.459865E-1,1.0533807E0,-6.7438126E-2,-8.26288E-1,-1.9095255E-1,8.376437E-2,8.517798E-2,-7.549488E-1,-6.864286E-2,5.149762E-2,-8.538582E-1,-5.535056E-1,-6.8574786E-2,2.151333E-1,-8.721704E-2,-6.905776E-2,-7.922117E-1,-2.863934E-1,-6.80645E-2,5.721393E-1,-8.490235E-2,-1.0451571E-1,-8.129761E-2,-6.9386184E-2,-7.526667E-1,-1.4280824E-1,-2.8896454E-1,-7.475374E-2,8.539506E-2,-7.305391E-2,-9.838897E-2,-8.102136E-2,-1.2004319E-1,-7.3382914E-2,-9.766732E-2,-5.5274747E-2,-6.8104744E-2,-1.869363E-2,-2.9355506E-3,-2.3554273E-2,-1.828052E-2,-5.5080885E-3,-1.0736595E-2,-7.837448E-3,-4.912969E-3,-9.095492E-3,-6.6440054E-3,-8.199176E-3,-4.5013297E-3,-1.2356884E-2,-8.448024E-3,-6.0914606E-3,-2.690406E-3,-9.844452E-3,-6.549617E-3],"categories":[],"categories_nodes":[],"categories_segments":[],"categories_sizes":[],"default_left":[0,0,0,0,0,0,0,0,0,0,0,0,0,0,0,0,0,0,0,0,0,0,0,0,0,0,0,0,0,0,0,0,0,0,0,0,0,0,0,0,0,0,0,0,0,0,0,0,0,0,0,0,0,0,0,0,0],"id":18,"left_children":[1,3,5,7,-1,9,11,-1,-1,13,-1,15,17,19,-1,21,23,-1,25,27,-1,29,31,33,35,-1,37,39,41,43,-1,45,47,49,51,53,55,-1,-1,-1,-1,-1,-1,-1,-1,-1,-1,-1,-1,-1,-1,-1,-1,-1,-1,-1,-1],"loss_changes":[2.6903518E4,1.81605E4,3.9457715E3,5.332031E-1,0E0,4.9375E1,2.8120107E3,0E0,0E0,1.401123E2,0E0,2.9082498E2,1.8554688E0,1.8257758E2,0E0,6.2973444E2,6.8294144E-1,0E0,1.0607605E0,3.6414337E-1,0E0,8.6031537E2,4.8615837E-1,6.1222076E-1,6.4619446E-1,0E0,1.827774E0,1.9614613E-1,2.7420807E-1,3.7927818E-1,0E0,4.7356987E-1,3.200159E-1,3.5353756E-1,4.8212242E-1,3.7013054E-1,6.4299583E-1,0E0,0E0,0E0,0E0,0E0,0E0,0E0,0E0,0E0,0E0,0E0,0E0,0E0,0E0,0E0,0E0,0E0,0E0,0E0,0E0],"parents":[2147483647,0,0,1,1,2,2,3,3,5,5,6,6,9,9,11,11,12,12,13,13,15,15,16,16,18,18,19,19,21,21,22,22,23,23,24,24,26,26,27,27,28,28,29,29,31,31,32,32,33,33,34,34,35,35,36,36],"right_children":[2,4,6,8,-1,10,12,-1,-1,14,-1,16,18,20,-1,22,24,-1,26,28,-1,30,32,34,36,-1,38,40,42,44,-1,46,48,50,52,54,56,-1,-1,-1,-1,-1,-1,-1,-1,-1,-1,-1,-1,-1,-1,-1,-1,-1,-1,-1,-1],"split_conditions":[3.5E-1,7.1E-1,3E0,2.5E-1,-6.7438126E-2,4.5E-1,5.9E-1,8.376437E-2,8.517798E-2,2.407E1,-6.864286E-2,4.5E-1,3.558E1,7.1E-1,-6.8574786E-2,4E0,3.3E-1,-6.905776E-2,4E0,1.9E-1,-6.80645E-2,2.65E1,4.7E-1,5.1E-1,3.218E1,-6.9386184E-2,6.6E-1,3.8E-1,6.8E-1,2.601E1,8.539506E-2,2.7E-1,2.778E1,1E2,2.381E1,3.09E1,5.1E-1,-5.5274747E-2,-6.8104744E-2,-1.869363E-2,-2.9355506E-3,-2.3554273E-2,-1.828052E-2,-5.5080885E-3,-1.0736595E-2,-7.837448E-3,-4.912969E-3,-9.095492E-3,-6.6440054E-3,-8.199176E-3,-4.5013297E-3,-1.2356884E-2,-8.448024E-3,-6.0914606E-3,-2.690406E-3,-9.844452E-3,-6.549617E-3],"split_indices":[4,3,10,4,0,4,4,0,0,12,0,4,12,3,0,10,0,0,10,0,0,12,0,4,12,0,4,4,0,12,0,0,12,14,12,12,4,0,0,0,0,0,0,0,0,0,0,0,0,0,0,0,0,0,0,0,0],"split_type":[0,0,0,0,0,0,0,0,0,0,0,0,0,0,0,0,0,0,0,0,0,0,0,0,0,0,0,0,0,0,0,0,0,0,0,0,0,0,0,0,0,0,0,0,0,0,0,0,0,0,0,0,0,0,0,0,0],"sum_hessian":[7.186554E4,3.2214543E4,3.9651E4,2.5945023E4,6.269519E3,2.2156607E4,1.749439E4,1.6722033E4,9.222991E3,6.832189E3,1.532442E4,1.2810036E4,4.6843535E3,2.3026E3,4.529589E3,5.877167E3,6.9328696E3,4.0539502E3,6.3040314E2,1.2140906E3,1.0885095E3,2.6835247E3,3.1936426E3,1.7589738E3,5.1738955E3,2.093267E2,4.2107642E2,2.3036875E1,1.1910537E3,1.1639614E3,1.5195632E3,1.7074353E3,1.4862074E3,7.0496375E2,1.05401E3,3.4954492E3,1.6784464E3,2.6454047E2,1.5653593E2,1.1255053E1,1.1781822E1,1.0872683E3,1.03785446E2,1.0623319E3,1.01629425E2,5.3866095E2,1.1687743E3,7.374604E2,7.4874695E2,3.736977E2,3.3126602E2,3.0664545E2,7.473645E2,3.2652847E3,2.3016461E2,6.387533E2,1.0396931E3],"tree_param":{"num_deleted":"0","num_feature":"15","num_nodes":"57","size_leaf_vector":"1"}},{"base_weights":[-2.6428057E-5,-4.3732904E-2,7.0638824E-1,1.6530491E0,-2.6287365E-1,-4.3671217E-2,2.1567578E0,4.4710138E-1,-4.3774728E-2,2.2734373E0,-4.3602437E-2,1.273615E0,-4.3663945E-2,2.5306938E0,1.3497373E0,2.694506E-1,2.2034905E0,2.6029234E0,1.1032995E0,2.4873784E0,8.034531E-2,1.0653005E0,-4.4091996E-2,1.9536266E-1,-4.2408574E-2,1.963905E-1,2.1772872E-1,1.863714E-1,-4.480519E-2,1.8311885E-1,2.8112867E-1,1.6097698E-1,-4.385209E-2,-4.3121748E-2,1.8866354E-1],"categories":[],"categories_nodes":[],"categories_segments":[],"categories_sizes":[],"default_left":[0,0,0,0,0,0,0,0,0,0,0,0,0,0,0,0,0,0,0,0,0,0,0,0,0,0,0,0,0,0,0,0,0,0,0],"id":19,"left_children":[1,-1,3,5,7,-1,9,11,-1,13,-1,15,-1,17,19,21,23,25,27,29,31,33,-1,-1,-1,-1,-1,-1,-1,-1,-1,-1,-1,-1,-1],"loss_changes":[9.265498E3,0E0,9.605053E3,5.8669004E3,1.0443947E3,0E0,1.3597598E3,1.214974E3,0E0,9.7777344E2,0E0,7.5343665E2,0E0,3.2973438E2,1.3022124E3,2.5506E2,2.7485144E2,4.680078E1,3.2247375E2,8.826172E1,5.202047E2,4.125384E2,0E0,0E0,0E0,0E0,0E0,0E0,0E0,0E0,0E0,0E0,0E0,0E0,0E0],"parents":[2147483647,0,0,2,2,3,3,4,4,6,6,7,7,9,9,11,11,13,13,14,14,15,15,16,16,17,17,18,18,19,19,20,20,21,21],"right_children":[2,-1,4,6,8,-1,10,12,-1,14,-1,16,-1,18,20,22,24,26,28,30,32,34,-1,-1,-1,-1,-1,-1,-1,-1,-1,-1,-1,-1,-1],"split_conditions":[1E2,-4.3732904E-2,2.43E1,3.5E-1,2E1,-4.3671217E-2,6.7E-1,2.87E1,-4.3774728E-2,1.4E0,-4.3602437E-2,4.5E-1,-4.3663945E-2,6.6E-1,7E-1,2.65E1,6.3E-1,1.36E0,1.33E0,5.7E-1,4E-1,3.5E-1,-4.4091996E-2,1.9536266E-1,-4.2408574E-2,1.963905E-1,2.1772872E-1,1.863714E-1,-4.480519E-2,1.8311885E-1,2.8112867E-1,1.6097698E-1,-4.385209E-2,-4.3121748E-2,1.8866354E-1],"split_indices":[14,0,12,4,8,0,4,12,0,6,0,4,0,4,3,12,4,6,6,4,4,4,0,0,0,0,0,0,0,0,0,0,0,0,0],"split_type":[0,0,0,0,0,0,0,0,0,0,0,0,0,0,0,0,0,0,0,0,0,0,0,0,0,0,0,0,0,0,0,0,0,0,0],"sum_hessian":[2.3992543E4,1.3526156E4,1.0466387E4,5.2946216E3,5.171765E3,9.867377E2,4.307884E3,1.4785736E3,3.6931917E3,4.1297324E3,1.7815125E2,8.067959E2,6.7177765E2,3.2286772E3,9.0105524E2,3.8857474E2,4.1822116E2,3.0723171E3,1.563602E2,4.7464005E2,4.264152E2,1.9717274E2,1.9140201E2,3.8478665E2,3.3434525E1,1.3771118E3,1.6952053E3,8.98076E1,6.655259E1,4.0056638E2,7.407367E1,1.0417143E2,3.2224377E2,8.8218575E1,1.0895416E2],"tree_param":{"num_deleted":"0","num_feature":"15","num_nodes":"35","size_leaf_vector":"1"}},{"base_weights":[-1.4856449E-2,-4.11548E-2,1.9153677E0,2.4803452E0,-4.186633E-2,2.7974835E-1,1.1648213E-1],"categories":[],"categories_nodes":[],"categories_segments":[],"categories_sizes":[],"default_left":[0,0,0,0,0,0,0],"id":20,"left_children":[1,-1,3,5,-1,-1,-1],"loss_changes":[8.649028E3,0E0,2.5423213E3,1.5535986E3,0E0,0E0,0E0],"parents":[2147483647,0,0,2,2,3,3],"right_children":[2,-1,4,6,-1,-1,-1],"split_conditions":[7.2E-1,-4.11548E-2,3.063E1,8.5E1,-4.186633E-2,2.7974835E-1,1.1648213E-1],"split_indices":[3,0,12,14,0,0,0],"split_type":[0,0,0,0,0,0,0],"sum_hessian":[8.967366E3,7.124258E3,1.8431078E3,1.496447E3,3.4666077E2,7.498261E2,7.466209E2],"tree_param":{"num_deleted":"0","num_feature":"15","num_nodes":"7","size_leaf_vector":"1"}},{"base_weights":[-4.0810832E-4,6.3662034E-1,-3.105827E-1,-4.6308994E-1,1.3767301E0,-4.277201E-2,3.8147664E-1,-4.2777564E-2,1.74533E-1,-4.2626407E-2,1.8809758E0,1.0123432E0,-4.3001574E-2,-4.2856187E-2,2.8874514E-1,-4.4476848E-2,2.483681E0,-4.2943396E-2,1.4453646E0,-3.2976672E-1,9.5762956E-1,2.2460794E0,3.1675007E0,-1.705704E-2,1.8848598E0,-4.2556167E-2,-5.0470006E-2,1.11682564E-1,7.259866E-1,2.3369286E0,1.5074225E-1,2.310614E-1,2.7335247E-1,-4.2941907E-1,6.895374E-1,2.1306841E0,1.4716636E-1,-4.2271886E-2,3.6689933E-2,1.3592954E-2,6.2332664E-2,1.5335147E-1,1.902838E-1,1.4409504E-2,-4.261734E-2,6.5052316E-2,4.667698E-2,1.470671E-1,2.1675172E-1],"categories":[],"categories_nodes":[],"categories_segments":[],"categories_sizes":[],"default_left":[0,0,0,0,0,0,0,0,0,0,0,0,0,0,0,0,0,0,0,0,0,0,0,0,0,0,0,0,0,0,0,0,0,0,0,0,0,0,0,0,0,0,0,0,0,0,0,0,0],"id":21,"left_children":[1,3,5,7,9,-1,11,-1,13,-1,15,17,-1,-1,-1,19,21,-1,23,25,27,29,31,33,35,-1,37,-1,39,41,-1,-1,-1,43,45,47,-1,-1,-1,-1,-1,-1,-1,-1,-1,-1,-1,-1,-1],"loss_changes":[3.733076E3,5.0361494E3,1.9705859E3,1.13829285E2,3.5621685E3,0E0,1.802637E3,0E0,6.170692E2,0E0,3.3958857E3,1.2374711E3,0E0,0E0,0E0,1.9994359E2,3.544209E2,0E0,9.2642285E2,3.066386E1,1.4511383E1,4.9651367E1,2.9342773E1,9.757029E1,8.018311E0,0E0,5.6203316E1,0E0,2.8365974E0,1.8092773E1,0E0,0E0,0E0,1.3453045E1,1.0034447E0,2.2598328E1,0E0,0E0,0E0,0E0,0E0,0E0,0E0,0E0,0E0,0E0,0E0,0E0,0E0],"parents":[2147483647,0,0,1,1,2,2,3,3,4,4,6,6,8,8,10,10,11,11,15,15,16,16,18,18,19,19,20,20,21,21,22,22,23,23,24,24,26,26,28,28,29,29,33,33,34,34,35,35],"right_children":[2,4,6,8,10,-1,12,-1,14,-1,16,18,-1,-1,-1,20,22,-1,24,26,28,30,32,34,36,-1,38,-1,40,42,-1,-1,-1,44,46,48,-1,-1,-1,-1,-1,-1,-1,-1,-1,-1,-1,-1,-1],"split_conditions":[1.04E2,8.5E1,7.1E-1,7.2E-1,1.27E0,-4.277201E-2,7.2E-1,-4.2777564E-2,3.503E1,-4.2626407E-2,2.365E1,8.5E1,-4.3001574E-2,-4.2856187E-2,2.8874514E-1,2.187E1,3.507E1,-4.2943396E-2,2.274E1,2.018E1,7E-1,1.4E0,6.8E1,2.054E1,1.21E2,-4.2556167E-2,7.1E-1,1.11682564E-1,2.6E-1,2.407E1,1.5074225E-1,2.310614E-1,2.7335247E-1,1.21E2,1.65E2,3.374E1,1.4716636E-1,-4.2271886E-2,3.6689933E-2,1.3592954E-2,6.2332664E-2,1.5335147E-1,1.902838E-1,1.4409504E-2,-4.261734E-2,6.5052316E-2,4.667698E-2,1.470671E-1,2.1675172E-1],"split_indices":[7,14,3,3,11,0,3,0,12,0,12,14,0,0,0,12,12,0,12,12,3,6,13,12,7,0,3,0,0,12,0,0,0,7,7,12,0,0,0,0,0,0,0,0,0,0,0,0,0],"split_type":[0,0,0,0,0,0,0,0,0,0,0,0,0,0,0,0,0,0,0,0,0,0,0,0,0,0,0,0,0,0,0,0,0,0,0,0,0,0,0,0,0,0,0,0,0,0,0,0,0],"sum_hessian":[1.8891201E4,6.185732E3,1.270547E4,2.4884485E3,3.6972832E3,9.59823E3,3.1072393E3,2.2374182E3,2.5103017E2,7.7231177E2,2.9249714E3,1.8424523E3,1.2647871E3,2.0869225E2,4.233793E1,6.9748553E2,2.227486E3,4.023988E2,1.4400535E3,5.435211E2,1.5396442E2,1.6563854E3,5.7110065E2,3.3293726E2,1.1071162E3,3.145517E2,2.289694E2,5.1340378E1,1.0262404E2,1.3193557E3,3.3702972E2,2.7556308E2,2.9553757E2,2.1057904E2,1.223582E2,1.6470094E2,9.424152E2,1.1818136E2,1.1078805E2,9.486766E0,9.3137276E1,1.2340154E2,1.1959541E3,3.0267162E1,1.8031189E2,5.2993156E1,6.936504E1,1.12313515E2,5.2387436E1],"tree_param":{"num_deleted":"0","num_feature":"15","num_nodes":"49","size_leaf_vector":"1"}},{"base_weights":[-2.1796162E-1,3.5484427E-1,-5.719552E-1,-3.9845336E-2,1.3332988E0,-3.996461E-2,-6.815191E-1,-3.873506E-2,1.7765934E0,-3.91403E-2,-7.3139745E-1,7.7158517E-1,1.2429812E0,-3.36082E-2,-5.9191857E-2,-2.9910898E-2,1.0358969E-1],"categories":[],"categories_nodes":[],"categories_segments":[],"categories_sizes":[],"default_left":[0,0,0,0,0,0,0,0,0,0,0,0,0,0,0,0,0],"id":22,"left_children":[1,3,5,-1,7,-1,9,-1,11,-1,13,-1,15,-1,-1,-1,-1],"loss_changes":[1.9258212E2,3.0355743E2,4.1960144E0,0E0,1.3740271E2,0E0,1.7274704E0,0E0,5.594968E2,0E0,5.0376892E-2,0E0,1.1388489E1,0E0,0E0,0E0,0E0],"parents":[2147483647,0,0,1,1,2,2,4,4,6,6,8,8,10,10,12,12],"right_children":[2,4,6,-1,8,-1,10,-1,12,-1,14,-1,16,-1,-1,-1,-1],"split_conditions":[1.19E2,6E-1,3.594E1,-3.9845336E-2,3.53E1,-3.996461E-2,6E-1,-3.873506E-2,3.558E1,-3.91403E-2,4E0,7.7158517E-1,4E0,-3.36082E-2,-5.9191857E-2,-2.9910898E-2,1.0358969E-1],"split_indices":[7,4,12,0,12,0,4,0,12,0,10,0,10,0,0,0,0],"split_type":[0,0,0,0,0,0,0,0,0,0,0,0,0,0,0,0,0],"sum_hessian":[9.476503E2,3.618488E2,5.858015E2,1.935348E2,1.6831398E2,3.5662405E2,2.2917749E2,3.294072E1,1.3537326E2,4.9846943E1,1.7933055E2,7.501413E0,1.2787184E2,6.419891E0,1.7291066E2,3.7232969E0,1.24148544E2],"tree_param":{"num_deleted":"0","num_feature":"15","num_nodes":"17","size_leaf_vector":"1"}},{"base_weights":[2.5642018E-3,-4.7809523E-2,2.687987E-1,-4.7019592E-1,6.386935E-1,-4.854013E-2,-2.5663385E-1,-4.0431738E-2,9.4303703E-1,-5.089684E-1,-4.6317995E-2,-4.7875747E-2,1.1430862E0,-4.7570296E-2,1.060391E0,-4.754213E-2,-4.1410518E-1,-5.7862367E-2,-3.1413645E-2,-4.7495708E-2,1.2853418E-1,8.628373E-1,1.5821633E0,-6.295083E-2,-4.85847E-2,-7.058921E-2,-2.600959E-2,-9.835786E-3,-6.5779194E-2,-3.8458785E-1,1.2571557E0,1.292763E-1,1.4915602E0,-9.348384E-3,-5.902974E-4,-4.048946E-3,-7.2387527E-3,-1.1491879E-2,-1.3995782E-3,-2.8463244E-3,2.547325E-3,-1.262864E-2,-3.3638729E-3,-4.7687624E-2,3.591013E-2,1.1200055E-1,6.0893744E-2,1.11225165E-1,1.22088045E-1],"categories":[],"categories_nodes":[],"categories_segments":[],"categories_sizes":[],"default_left":[0,0,0,0,0,0,0,0,0,0,0,0,0,0,0,0,0,0,0,0,0,0,0,0,0,0,0,0,0,0,0,0,0,0,0,0,0,0,0,0,0,0,0,0,0,0,0,0,0],"id":23,"left_children":[1,-1,3,5,7,-1,9,11,13,15,17,-1,19,-1,21,-1,23,25,27,-1,-1,29,31,33,-1,35,37,39,41,43,45,-1,47,-1,-1,-1,-1,-1,-1,-1,-1,-1,-1,-1,-1,-1,-1,-1,-1],"loss_changes":[6.916518E3,0E0,8.196638E3,2.9146387E2,4.1303906E3,0E0,2.0706839E2,4.0852158E3,2.4907783E3,1.4009979E1,3.557825E-1,0E0,1.5968794E3,0E0,1.3199805E3,0E0,5.7145126E1,4.7311974E-1,6.856957E-1,0E0,0E0,4.5762593E3,8.0546875E0,8.87774E-1,0E0,3.1967878E-1,3.2706133E-1,6.214315E-1,7.577579E-1,3.9427338E2,4.9953027E2,0E0,9.785156E-1,0E0,0E0,0E0,0E0,0E0,0E0,0E0,0E0,0E0,0E0,0E0,0E0,0E0,0E0,0E0,0E0],"parents":[2147483647,0,0,2,2,3,3,4,4,6,6,7,7,8,8,9,9,10,10,12,12,14,14,16,16,17,17,18,18,21,21,22,22,23,23,25,25,26,26,27,27,28,28,29,29,30,30,32,32],"right_children":[2,-1,4,6,8,-1,10,12,14,16,18,-1,20,-1,22,-1,24,26,28,-1,-1,30,32,34,-1,36,38,40,42,44,46,-1,48,-1,-1,-1,-1,-1,-1,-1,-1,-1,-1,-1,-1,-1,-1,-1,-1],"split_conditions":[2.1E1,-4.7809523E-2,1.19E2,3E0,2.407E1,-4.854013E-2,7.5E1,3E0,6E1,6E1,4.5E-1,-4.7875747E-2,6E1,-4.7570296E-2,3E0,-4.754213E-2,3.438E1,2.778E1,5.8E-1,-4.7495708E-2,1.2853418E-1,8.5E1,3.438E1,7.5E1,-4.85847E-2,7.5E1,1.8E-1,5.3E-1,2.018E1,7.1E-1,3.507E1,1.292763E-1,3.558E1,-9.348384E-3,-5.902974E-4,-4.048946E-3,-7.2387527E-3,-1.1491879E-2,-1.3995782E-3,-2.8463244E-3,2.547325E-3,-1.262864E-2,-3.3638729E-3,-4.7687624E-2,3.591013E-2,1.1200055E-1,6.0893744E-2,1.11225165E-1,1.22088045E-1],"split_indices":[8,0,7,10,12,0,14,10,14,14,2,0,14,0,10,0,12,12,2,0,0,14,12,7,0,7,2,2,12,3,12,0,12,0,0,0,0,0,0,0,0,0,0,0,0,0,0,0,0],"split_type":[0,0,0,0,0,0,0,0,0,0,0,0,0,0,0,0,0,0,0,0,0,0,0,0,0,0,0,0,0,0,0,0,0,0,0,0,0,0,0,0,0,0,0,0,0,0,0,0,0],"sum_hessian":[4.3283387E4,1.3299704E4,2.9983682E4,1.0001546E4,1.9982137E4,6.0992544E3,3.902291E3,6.1838237E3,1.3798313E4,1.7730774E3,2.1292136E3,4.202821E3,1.9810029E3,9.780602E2,1.2820253E4,9.302275E2,8.428499E2,1.1944464E3,9.3476715E2,4.1726804E2,1.5637349E3,9.301399E3,3.5188535E3,2.997986E2,5.430513E2,8.5033716E2,3.441093E2,5.7679694E2,3.5797018E2,2.23398E3,7.0674194E3,2.549921E3,9.6893274E2,1.5071017E2,1.4908846E2,4.2856857E2,4.217686E2,2.1362103E1,3.227472E2,3.5813177E2,2.1866516E2,7.133076E1,2.8663943E2,1.7821343E3,4.5184573E2,5.485488E3,1.5819314E3,2.5770102E2,7.112317E2],"tree_param":{"num_deleted":"0","num_feature":"15","num_nodes":"49","size_leaf_vector":"1"}},{"base_weights":[-1.1646153E-3,7.2820544E-1,-4.259212E-2,-1.0677283E-2,2.5036585E0,-3.8037187E-1,9.1069263E-1,3.2936022E0,1.0608877E0,-4.2700425E-2,1.5509924E-1,7.764648E-1,1.1739914E0,3.2037816E0,2.8445286E-1,-4.264248E-2,3.2072723E-1,9.3373394E-1,-4.2560805E-2,9.8227674E-1,-1.1305366E-1,1.2219751E0,8.81955E-2,2.4116729E-1,2.6899895E-1,1.02768704E-1,5.7162505E-2,9.057091E-2,8.051586E-1,9.2196204E-2,-4.2542018E-2,9.952656E-2,7.811481E-2,5.677592E-2,6.614296E-2,1.8244611E-2,4.5448765E-3],"categories":[],"categories_nodes":[],"categories_segments":[],"categories_sizes":[],"default_left":[0,0,0,0,0,0,0,0,0,0,0,0,0,0,0,0,0,0,0,0,0,0,0,0,0,0,0,0,0,0,0,0,0,0,0,0,0],"id":24,"left_children":[1,3,-1,5,7,9,11,13,15,-1,17,19,21,23,-1,-1,-1,25,-1,27,29,31,-1,-1,-1,-1,-1,-1,33,35,-1,-1,-1,-1,-1,-1,-1],"loss_changes":[7.099853E3,1.0130133E4,0E0,1.8579169E3,2.582333E3,3.1983978E2,5.4092163E1,2.2436523E1,3.782443E3,0E0,4.6460318E2,1.9016907E2,2.2332764E-1,2.231543E1,0E0,0E0,0E0,3.0189575E1,0E0,2.1267456E1,1.6919193E1,2.1490479E-1,0E0,0E0,0E0,0E0,0E0,0E0,6.4956665E-2,5.935056E-1,0E0,0E0,0E0,0E0,0E0,0E0,0E0],"parents":[2147483647,0,0,1,1,3,3,4,4,5,5,6,6,7,7,8,8,10,10,11,11,12,12,13,13,17,17,19,19,20,20,21,21,28,28,29,29],"right_children":[2,4,-1,6,8,10,12,14,16,-1,18,20,22,24,-1,-1,-1,26,-1,28,30,32,-1,-1,-1,-1,-1,-1,34,36,-1,-1,-1,-1,-1,-1,-1],"split_conditions":[1.21E2,5.5E-1,-4.259212E-2,7.1E-1,3E0,4.5E-1,4E-1,6.6E-1,6.6E-1,-4.2700425E-2,3E0,3.3E-1,4.5E-1,2.2E1,2.8445286E-1,-4.264248E-2,3.2072723E-1,6.9E-1,-4.2560805E-2,7.2E-1,7.2E-1,1.04E2,8.81955E-2,2.4116729E-1,2.6899895E-1,1.02768704E-1,5.7162505E-2,9.057091E-2,2.4E-1,2.8E-1,-4.2542018E-2,9.952656E-2,7.811481E-2,5.677592E-2,6.614296E-2,1.8244611E-2,4.5448765E-3],"split_indices":[7,4,0,3,10,4,4,4,4,0,10,4,0,8,0,0,0,3,0,3,3,7,0,0,0,0,0,0,0,0,0,0,0,0,0,0,0],"split_type":[0,0,0,0,0,0,0,0,0,0,0,0,0,0,0,0,0,0,0,0,0,0,0,0,0,0,0,0,0,0,0,0,0,0,0,0,0],"sum_hessian":[1.8321754E4,7.7208E3,1.0600953E4,5.4525664E3,2.2682334E3,3.891728E3,1.5608386E3,1.4648494E3,8.0338416E2,3.025326E3,8.66402E2,1.0366771E3,5.2416144E2,1.1010657E3,3.6378363E2,5.2197076E2,2.8141342E2,4.0605063E2,4.6035138E2,8.4189276E2,1.947844E2,3.0328564E2,2.2087582E2,5.1169986E2,5.8936584E2,1.5408772E2,2.5196289E2,4.5281186E2,3.8908093E2,1.3107484E2,6.3709557E1,2.7413052E2,2.9155117E1,7.897072E1,3.101102E2,2.5375338E1,1.056995E2],"tree_param":{"num_deleted":"0","num_feature":"15","num_nodes":"37","size_leaf_vector":"1"}},{"base_weights":[-1.565356E-2,-4.115165E-2,1.10811E0,2.2938743E0,-4.1152623E-2,2.9367697E0,-4.099872E-2,-4.0758576E-2,2.605501E-1],"categories":[],"categories_nodes":[],"categories_segments":[],"categories_sizes":[],"default_left":[0,0,0,0,0,0,0,0,0],"id":25,"left_children":[1,-1,3,5,-1,7,-1,-1,-1],"loss_changes":[5.0325186E3,0E0,5.311525E3,2.8792266E3,0E0,1.4336221E3,0E0,0E0,0E0],"parents":[2147483647,0,0,2,2,3,3,5,5],"right_children":[2,-1,4,6,-1,8,-1,-1,-1],"split_conditions":[7.1E-1,-4.115165E-2,3.2E-1,7.2E-1,-4.1152623E-2,2.274E1,-4.099872E-2,-4.0758576E-2,2.605501E-1],"split_indices":[3,0,4,3,0,12,0,0,0],"split_type":[0,0,0,0,0,0,0,0,0],"sum_hessian":[8.977223E3,6.2181514E3,2.7590718E3,1.5938826E3,1.1651892E3,1.296795E3,2.9708752E2,1.1013915E2,1.1866559E3],"tree_param":{"num_deleted":"0","num_feature":"15","num_nodes":"9","size_leaf_vector":"1"}},{"base_weights":[-6.844328E-3,1.1706815E0,-4.079395E-2,-4.1020203E-2,2.9911914E0,1.1283573E-2,4.665946E0,-4.083985E-2,9.923227E-1,4.9649243E0,-4.0240727E-2,-4.0649485E-2,3.354183E0,2.7421236E0,5.594681E0,7.131139E0,-3.9081376E-2,-4.051551E-2,7.522069E0,7.25527E0,3.727733E-1,7.086075E-1,-3.144646E-2,4.5966598E-1,9.18308E-1,5.964224E-1,4.543723E-1],"categories":[],"categories_nodes":[],"categories_segments":[],"categories_sizes":[],"default_left":[0,0,0,0,0,0,0,0,0,0,0,0,0,0,0,0,0,0,0,0,0,0,0,0,0,0,0],"id":26,"left_children":[1,3,-1,-1,5,7,9,-1,11,13,-1,-1,15,17,19,21,-1,-1,23,25,-1,-1,-1,-1,-1,-1,-1],"loss_changes":[3.715583E3,5.755838E3,0E0,0E0,4.5020664E3,1.6724649E2,8.9552344E2,0E0,4.0410486E2,7.4826953E2,0E0,0E0,6.462111E2,1.9075948E3,6.2417676E2,2.9514417E2,0E0,0E0,2.81386E2,3.9609375E0,0E0,0E0,0E0,0E0,0E0,0E0,0E0],"parents":[2147483647,0,0,1,1,4,4,5,5,6,6,8,8,9,9,12,12,13,13,14,14,15,15,18,18,19,19],"right_children":[2,4,-1,-1,6,8,10,-1,12,14,-1,-1,16,18,20,22,-1,-1,24,26,-1,-1,-1,-1,-1,-1,-1],"split_conditions":[2E1,4.5E-1,-4.079395E-2,-4.1020203E-2,2.87E1,5.9E-1,6.3E-1,-4.083985E-2,2.43E1,1.17E2,-4.0240727E-2,-4.0649485E-2,1.17E2,5.9E-1,3.31E1,6.3E-1,-3.9081376E-2,-4.051551E-2,6.1E-1,6.1E-1,3.727733E-1,7.086075E-1,-3.144646E-2,4.5966598E-1,9.18308E-1,5.964224E-1,4.543723E-1],"split_indices":[8,4,0,0,12,4,4,0,12,7,0,0,7,4,12,4,0,0,4,4,0,0,0,0,0,0,0],"split_type":[0,0,0,0,0,0,0,0,0,0,0,0,0,0,0,0,0,0,0,0,0,0,0,0,0,0,0],"sum_hessian":[6.2702964E3,1.8765219E3,4.3937744E3,9.7531085E2,9.0121106E2,3.246408E2,5.7657025E2,2.1217157E2,1.1246923E2,5.450999E2,3.1470352E1,6.9230835E1,4.32384E1,1.2155839E2,4.235415E2,2.1387287E1,2.1851112E1,7.28922E1,4.8666183E1,1.5009892E2,2.7344257E2,1.7262445E1,4.124841E0,3.529795E1,1.3368236E1,1.2982387E2,2.0275051E1],"tree_param":{"num_deleted":"0","num_feature":"15","num_nodes":"27","size_leaf_vector":"1"}},{"base_weights":[-1.807191E-3,-2.738766E-1,7.5955206E-1,-3.6587936E-1,2.3567541E-1,-4.033917E-1,1.4092981E0,-5.009844E-1,-2.3251496E-1,-4.2172242E-2,5.822708E-1,-4.2257108E-2,4.3704477E-1,1.9530382E0,4.818308E-1,-4.2237043E-2,-1.2843072E-1,-7.291162E-2,-4.226705E-2,-2.4655989E-1,1.0767337E0,3.9575543E-2,2.3389278E-1,3.18179E0,1.1517249E0,3.1904828E-2,2.923174E0,-4.182113E-2,1.0686142E-1,-4.223988E-2,1.2936413E-1,-4.2035807E-2,1.1832096E-1,-2.4294597E-1,1.5024923E0,-4.1283965E-2,2.2585948E-1,2.8686816E-1,2.4164848E-1,-4.2259973E-2,1.2376045E-1,-4.2227324E-2,2.149421E-1,2.7937722E-1,2.088154E-1,-4.12876E-2,3.1408504E-1,-7.592683E-2,2.1838465E-1,-4.1243125E-2,3.2846928E-1,-4.1794527E-2,1.6956286E-1,1.2763873E0,1.4293838E-1,2.7000855E-3,2.3823763E-1,2.298048E-1,1.732851E-1,1.692292E-2,3.336915E-2,-4.2219143E-2,2.0680292E-2,1.6194351E-2,1.8397667E-2,3.0237267E-2,1.750009E-2,7.708719E-3,1.8581185E-2,7.9759866E-2,1.1061283E-1,2.2679312E-2,1.3953025E-2,1.5775153E-2,1.9782253E-2,6.412818E-3,1.5628062E-2],"categories":[],"categories_nodes":[],"categories_segments":[],"categories_sizes":[],"default_left":[0,0,0,0,0,0,0,0,0,0,0,0,0,0,0,0,0,0,0,0,0,0,0,0,0,0,0,0,0,0,0,0,0,0,0,0,0,0,0,0,0,0,0,0,0,0,0,0,0,0,0,0,0,0,0,0,0,0,0,0,0,0,0,0,0,0,0,0,0,0,0,0,0,0,0,0,0],"id":27,"left_children":[1,3,5,7,9,11,13,15,17,-1,19,-1,21,23,25,-1,27,29,-1,31,33,35,-1,37,39,41,43,-1,45,-1,47,-1,49,51,53,-1,55,-1,-1,-1,-1,-1,57,-1,-1,-1,59,61,63,-1,65,-1,67,69,-1,-1,71,73,75,-1,-1,-1,-1,-1,-1,-1,-1,-1,-1,-1,-1,-1,-1,-1,-1,-1,-1],"loss_changes":[3.3739678E3,5.626731E2,3.2408525E3,1.8297363E2,4.856793E2,1.6155988E2,1.3863257E3,5.0609497E1,2.4154108E2,0E0,5.1788837E2,0E0,1.9656667E2,1.7033159E3,1.1180941E3,0E0,3.1873777E1,3.062526E2,0E0,4.819579E1,4.4505035E2,1.7981508E1,0E0,3.3046875E1,6.9899536E2,8.82801E1,1.8487305E1,0E0,2.7917803E1,0E0,4.2119026E1,0E0,2.7510813E1,2.2467505E1,3.587195E1,0E0,2.7461672E-1,0E0,0E0,0E0,0E0,0E0,3.2203674E-1,0E0,0E0,0E0,1.5626144E0,1.0548025E2,2.0728302E-1,0E0,6.993332E-1,0E0,3.06839E-1,8.38916E0,0E0,0E0,2.5645113E-1,1.7687798E-1,3.1977654E-1,0E0,0E0,0E0,0E0,0E0,0E0,0E0,0E0,0E0,0E0,0E0,0E0,0E0,0E0,0E0,0E0,0E0,0E0],"parents":[2147483647,0,0,1,1,2,2,3,3,4,4,5,5,6,6,7,7,8,8,10,10,12,12,13,13,14,14,16,16,17,17,19,19,20,20,21,21,23,23,24,24,25,25,26,26,28,28,30,30,32,32,33,33,34,34,36,36,42,42,46,46,47,47,48,48,50,50,52,52,53,53,56,56,57,57,58,58],"right_children":[2,4,6,8,10,12,14,16,18,-1,20,-1,22,24,26,-1,28,30,-1,32,34,36,-1,38,40,42,44,-1,46,-1,48,-1,50,52,54,-1,56,-1,-1,-1,-1,-1,58,-1,-1,-1,60,62,64,-1,66,-1,68,70,-1,-1,72,74,76,-1,-1,-1,-1,-1,-1,-1,-1,-1,-1,-1,-1,-1,-1,-1,-1,-1,-1],"split_conditions":[7.1E-1,3.6E1,1.26E2,8.5E1,1.19E2,1.21E2,7.2E-1,3.53E1,6.9E1,-4.2172242E-2,7.5E1,-4.2257108E-2,3.503E1,2.274E1,3.503E1,-4.2237043E-2,1.19E2,1.17E2,-4.226705E-2,4E0,2E1,8.5E1,2.3389278E-1,8.5E1,8.5E1,8.5E1,7.5E1,-4.182113E-2,5E1,-4.223988E-2,1.33E0,-4.2035807E-2,5E1,6.36E0,7E-1,-4.1283965E-2,1.6E-1,2.8686816E-1,2.4164848E-1,-4.2259973E-2,1.2376045E-1,-4.2227324E-2,4.8E-1,2.7937722E-1,2.088154E-1,-4.12876E-2,6.9E-1,2.43E1,1.7E2,-4.1243125E-2,2.07E2,-4.1794527E-2,1.83E2,6.9E-1,1.4293838E-1,2.7000855E-3,4.2E-1,2.6E-1,1.48E2,1.692292E-2,3.336915E-2,-4.2219143E-2,2.0680292E-2,1.6194351E-2,1.8397667E-2,3.0237267E-2,1.750009E-2,7.708719E-3,1.8581185E-2,7.9759866E-2,1.1061283E-1,2.2679312E-2,1.3953025E-2,1.5775153E-2,1.9782253E-2,6.412818E-3,1.5628062E-2],"split_indices":[3,12,7,14,7,7,3,12,13,0,14,0,12,12,12,0,7,7,0,10,8,14,0,14,14,14,14,0,14,0,6,0,14,5,3,0,2,0,0,0,0,0,2,0,0,0,3,12,7,0,7,0,7,3,0,0,2,2,7,0,0,0,0,0,0,0,0,0,0,0,0,0,0,0,0,0,0],"split_type":[0,0,0,0,0,0,0,0,0,0,0,0,0,0,0,0,0,0,0,0,0,0,0,0,0,0,0,0,0,0,0,0,0,0,0,0,0,0,0,0,0,0,0,0,0,0,0,0,0,0,0,0,0,0,0,0,0,0,0,0,0,0,0,0,0,0,0,0,0,0,0,0,0,0,0,0,0],"sum_hessian":[1.6286373E4,1.1999249E4,4.2871235E3,1.016447E4,1.8347793E3,1.5367703E3,2.7503533E3,5.0475425E3,5.1169272E3,5.7295105E2,1.2618282E3,1.3384703E3,1.9829996E2,1.7330916E3,1.01726184E3,4.7060645E3,3.4147797E2,3.3247395E3,1.792188E3,4.7160745E2,7.902208E2,1.7188188E2,2.6418072E1,6.8286914E2,1.0502223E3,8.598502E2,1.5741159E2,1.2731314E2,2.1416481E2,1.02270557E3,2.302034E3,2.6720776E2,2.0439967E2,1.9280324E2,5.9741754E2,4.257809E1,1.293038E2,1.8848938E2,4.9437976E2,1.9992708E2,8.502953E2,2.1128607E2,6.4856415E2,5.2138878E1,1.0527271E2,5.2965782E1,1.6119904E2,6.9600195E2,1.6060319E3,5.041284E1,1.5398683E2,1.14918724E2,7.788452E1,3.3598816E2,2.6142938E2,8.541742E0,1.20762054E2,4.7291632E2,1.7564786E2,8.28046E1,7.8394424E1,2.9592755E2,4.000744E2,6.870292E2,9.1900275E2,1.03802605E2,5.0184223E1,3.7839237E1,4.0045284E1,9.5704956E1,2.4028322E2,6.773054E1,5.303152E1,1.7125797E2,3.0165836E2,3.540234E1,1.4024551E2],"tree_param":{"num_deleted":"0","num_feature":"15","num_nodes":"77","size_leaf_vector":"1"}},{"base_weights":[6.1816005E-3,6.4875096E-1,-5.197453E-1,9.8926336E-1,-6.4274125E-2,-8.237598E-2,-7.641689E-1,7.871037E-2,7.991531E-2,5.9421086E-1,-4.723583E-1,-4.8632267E-1,-8.282995E-1,8.3506964E-2,-6.6279374E-2,4.6562305E-1,-7.2628045E-1,2.1098371E-1,-6.73364E-2,-8.3923954E-1,-6.592788E-2,8.510922E-2,-8.1491774E-1,-4.6841815E-1,-8.0741525E-1,-6.7631654E-2,8.060504E-2,-6.822563E-2,-8.108231E-1,-6.6537395E-2,-5.848348E-2,2.4542244E-1,-6.6364184E-2,-6.5736866E-1,-6.5813944E-2,-6.575242E-2,-7.355563E-1,8.571773E-2,-6.5493226E-2,-1.9911224E-2,-6.603787E-2,-5.416872E-2,-6.578933E-2],"categories":[],"categories_nodes":[],"categories_segments":[],"categories_sizes":[],"default_left":[0,0,0,0,0,0,0,0,0,0,0,0,0,0,0,0,0,0,0,0,0,0,0,0,0,0,0,0,0,0,0,0,0,0,0,0,0,0,0,0,0,0,0],"id":28,"left_children":[1,3,5,7,-1,9,11,-1,-1,13,15,17,19,-1,-1,21,23,25,-1,27,-1,-1,29,31,33,-1,-1,-1,35,-1,-1,37,-1,39,-1,-1,41,-1,-1,-1,-1,-1,-1],"loss_changes":[2.404688E4,1.5837523E4,4.1829346E3,1.71875E-1,0E0,3.7019858E3,4.4673242E2,0E0,0E0,3.2824907E3,2.1201697E3,1.1674127E3,7.910156E-2,0E0,0E0,1.4538446E3,1.4604175E2,1.3394733E3,0E0,1.3022461E0,0E0,0E0,8.7371826E-2,4.3313174E2,1.1506592E1,0E0,0E0,0E0,7.684326E-1,0E0,0E0,4.9733853E2,0E0,3.383255E1,0E0,0E0,5.407562E-1,0E0,0E0,0E0,0E0,0E0,0E0],"parents":[2147483647,0,0,1,1,2,2,3,3,5,5,6,6,9,9,10,10,11,11,12,12,15,15,16,16,17,17,19,19,22,22,23,23,24,24,28,28,31,31,33,33,36,36],"right_children":[2,4,6,8,-1,10,12,-1,-1,14,16,18,20,-1,-1,22,24,26,-1,28,-1,-1,30,32,34,-1,-1,-1,36,-1,-1,38,-1,40,-1,-1,42,-1,-1,-1,-1,-1,-1],"split_conditions":[3.5E-1,7.1E-1,1.19E2,2.5E-1,-6.4274125E-2,1.3E0,2E1,7.871037E-2,7.991531E-2,5.9E-1,1.32E0,4.5E-1,8.5E1,8.3506964E-2,-6.6279374E-2,5.7E-1,4.3E-1,2.65E1,-6.73364E-2,5.7E-1,-6.592788E-2,8.510922E-2,3.438E1,2.407E1,4.5E-1,-6.7631654E-2,8.060504E-2,-6.822563E-2,3.558E1,-6.6537395E-2,-5.848348E-2,7.1E-1,-6.6364184E-2,2.365E1,-6.5813944E-2,-6.575242E-2,6.6E-1,8.571773E-2,-6.5493226E-2,-1.9911224E-2,-6.603787E-2,-5.416872E-2,-6.578933E-2],"split_indices":[4,3,7,4,0,11,8,0,0,4,6,4,14,0,0,4,4,12,0,4,0,0,12,12,4,0,0,0,12,0,0,3,0,12,0,0,4,0,0,0,0,0,0],"split_type":[0,0,0,0,0,0,0,0,0,0,0,0,0,0,0,0,0,0,0,0,0,0,0,0,0,0,0,0,0,0,0,0,0,0,0,0,0,0,0,0,0,0,0],"sum_hessian":[7.1154266E4,3.2025707E4,3.912856E4,2.59429E4,6.0828076E3,1.4028262E4,2.5100297E4,1.6742371E4,9.200528E3,5.129034E3,8.899228E3,4.708939E3,2.0391357E4,3.8975898E3,1.2314445E3,1.8956228E3,7.0036045E3,1.5897561E3,3.1191826E3,5.5960386E3,1.4795318E4,1.292187E3,6.034358E2,1.678142E3,5.3254624E3,6.833493E2,9.0640686E2,3.7644084E3,1.8316301E3,4.9431714E2,1.0911867E2,5.6378076E2,1.1143612E3,4.9626004E2,4.829202E3,1.5867526E3,2.4487758E2,3.1743985E2,2.4634091E2,1.4558292E2,3.5067712E2,1.522937E2,9.2583885E1],"tree_param":{"num_deleted":"0","num_feature":"15","num_nodes":"43","size_leaf_vector":"1"}},{"base_weights":[-2.5385094E-3,-4.3519773E-2,6.275403E-1,1.3917484E0,-2.6228905E-1,-4.343535E-2,1.7567574E0,4.0585944E-1,-4.3614227E-2,1.8381579E0,-4.341494E-2,1.1202995E0,-4.349508E-2,1.1569939E0,2.0337782E0,-4.314411E-2,1.5108907E0,1.906003E0,4.2174134E-2,1.9887502E0,2.1890473E0,1.6117321E0,-4.2354792E-2,1.7492464E-1,-4.4520024E-2,1.2272625E-1,-4.370611E-2,1.5259057E-1,1.6869293E-1,2.0172931E-1,1.5792124E-1,7.0814E-2,1.5715632E-1],"categories":[],"categories_nodes":[],"categories_segments":[],"categories_sizes":[],"default_left":[0,0,0,0,0,0,0,0,0,0,0,0,0,0,0,0,0,0,0,0,0,0,0,0,0,0,0,0,0,0,0,0,0],"id":29,"left_children":[1,-1,3,5,7,-1,9,11,-1,13,-1,15,-1,17,19,-1,21,23,25,27,29,31,-1,-1,-1,-1,-1,-1,-1,-1,-1,-1,-1],"loss_changes":[8.156379E3,0E0,7.514317E3,4.1990137E3,9.653191E2,0E0,9.372549E2,1.0313163E3,0E0,6.410039E2,0E0,5.631433E2,0E0,9.01699E2,2.1457031E1,0E0,1.4548206E2,4.4769824E2,3.830102E2,2.40625E1,5.4136475E1,1.6958215E2,0E0,0E0,0E0,0E0,0E0,0E0,0E0,0E0,0E0,0E0,0E0],"parents":[2147483647,0,0,2,2,3,3,4,4,6,6,7,7,9,9,11,11,13,13,14,14,16,16,17,17,18,18,19,19,20,20,21,21],"right_children":[2,-1,4,6,8,-1,10,12,-1,14,-1,16,-1,18,20,-1,22,24,26,28,30,32,-1,-1,-1,-1,-1,-1,-1,-1,-1,-1,-1],"split_conditions":[1E2,-4.3519773E-2,2.43E1,3.5E-1,2E1,-4.343535E-2,6.7E-1,2.87E1,-4.3614227E-2,6.8E1,-4.341494E-2,3.5E-1,-4.349508E-2,6.29E0,5.9E-1,-4.314411E-2,6.3E-1,6.3E-1,4E-1,1.31E0,2E1,4.5E-1,-4.2354792E-2,1.7492464E-1,-4.4520024E-2,1.2272625E-1,-4.370611E-2,1.5259057E-1,1.6869293E-1,2.0172931E-1,1.5792124E-1,7.0814E-2,1.5715632E-1],"split_indices":[14,0,12,4,8,0,4,12,0,13,0,4,0,5,4,0,4,4,4,11,8,4,0,0,0,0,0,0,0,0,0,0,0],"split_type":[0,0,0,0,0,0,0,0,0,0,0,0,0,0,0,0,0,0,0,0,0,0,0,0,0,0,0,0,0,0,0,0,0],"sum_hessian":[2.3905693E4,1.285717E4,1.1048523E4,5.9435767E3,5.1049463E3,9.432455E2,5.000331E3,1.5182468E3,3.5866997E3,4.8296064E3,1.7072437E2,8.6633887E2,6.5190796E2,1.0791956E3,3.7504111E3,1.6492879E2,7.014101E2,6.450256E2,4.3416998E2,2.918499E3,8.31912E2,6.68623E2,3.2787067E1,5.7919055E2,6.5835014E1,1.2241066E2,3.1175934E2,1.7492532E3,1.1692458E3,3.222802E2,5.096318E2,2.19754E2,4.4886902E2],"tree_param":{"num_deleted":"0","num_feature":"15","num_nodes":"33","size_leaf_vector":"1"}},{"base_weights":[-1.6282339E-2,-4.1098226E-2,1.5968286E0,2.4250875E0,-4.1213896E-2,-4.015068E-2,2.5201027E0,2.3787735E0,2.28172E-1,1.9579147E-1,-3.9185267E-2],"categories":[],"categories_nodes":[],"categories_segments":[],"categories_sizes":[],"default_left":[0,0,0,0,0,0,0,0,0,0,0],"id":30,"left_children":[1,-1,3,5,-1,-1,7,9,-1,-1,-1],"loss_changes":[7.1230967E3,0E0,3.661308E3,4.194756E2,0E0,0E0,6.101953E1,2.0365723E2,0E0,0E0,0E0],"parents":[2147483647,0,0,2,2,3,3,6,6,7,7],"right_children":[2,-1,4,6,-1,-1,8,10,-1,-1,-1],"split_conditions":[7.2E-1,-4.1098226E-2,3.3E-1,7.5E1,-4.1213896E-2,-4.015068E-2,1E2,2.5E-1,2.28172E-1,1.9579147E-1,-3.9185267E-2],"split_indices":[3,0,4,14,0,0,14,4,0,0,0],"split_type":[0,0,0,0,0,0,0,0,0,0,0],"sum_hessian":[8.874967E3,6.7837583E3,2.0912083E3,1.5020514E3,5.891568E2,4.705879E1,1.4549927E3,1.0265338E3,4.284588E2,1.00272906E3,2.380479E1],"tree_param":{"num_deleted":"0","num_feature":"15","num_nodes":"11","size_leaf_vector":"1"}},{"base_weights":[-4.8691863E-3,3.2654178E-1,-4.2520784E-2,-4.7757992E-1,8.0856967E-1,-4.277607E-2,-2.4322589E-1,1.4117274E0,-2.50428E-1,6.417116E-1,-4.2423075E-1,9.633847E-1,2.5431948E0,3.9572498E-1,-4.3169744E-2,4.1362572E-2,5.7073973E-2,-4.2591818E-2,-2.7106205E-1,1.289891E0,8.3729583E-1,2.2964296E-1,2.357493E0,6.6119665E-1,-4.3494046E-2,5.039677E-1,-4.2826056E-2,1.2271922E0,1.2083427E-1,7.223733E-1,1.134654E0,2.1693754E-1,1.679339E-1,3.0122131E-2,6.937447E-1,3.3353277E-2,4.5713797E-2,6.751736E-2,9.859812E-2,4.757263E-2,6.6324964E-2,1.04403846E-1,8.7044746E-2,5.7948254E-2,5.114307E-2],"categories":[],"categories_nodes":[],"categories_segments":[],"categories_sizes":[],"default_left":[0,0,0,0,0,0,0,0,0,0,0,0,0,0,0,0,0,0,0,0,0,0,0,0,0,0,0,0,0,0,0,0,0,0,0,0,0,0,0,0,0,0,0,0,0],"id":31,"left_children":[1,3,-1,5,7,-1,9,11,13,15,17,19,21,23,-1,-1,-1,-1,25,27,29,-1,31,33,-1,35,-1,37,-1,39,41,-1,-1,-1,43,-1,-1,-1,-1,-1,-1,-1,-1,-1,-1],"loss_changes":[3.2819692E3,4.473857E3,0E0,5.7701843E1,4.6097246E3,0E0,1.3639328E2,2.329584E3,4.8969037E2,8.012619E-1,1.147744E1,1.3434326E2,7.1987305E1,2.024554E2,0E0,0E0,0E0,0E0,6.0644234E1,1.0535522E1,8.032129E1,0E0,7.049658E1,5.490509E0,0E0,1.0550499E-1,0E0,2.076416E-1,0E0,2.279364E1,3.5916748E0,0E0,0E0,0E0,3.439026E-1,0E0,0E0,0E0,0E0,0E0,0E0,0E0,0E0,0E0,0E0],"parents":[2147483647,0,0,1,1,3,3,4,4,6,6,7,7,8,8,9,9,10,10,11,11,12,12,13,13,18,18,19,19,20,20,22,22,23,23,25,25,27,27,29,29,30,30,34,34],"right_children":[2,4,-1,6,8,-1,10,12,14,16,18,20,22,24,-1,-1,-1,-1,26,28,30,-1,32,34,-1,36,-1,38,-1,40,42,-1,-1,-1,44,-1,-1,-1,-1,-1,-1,-1,-1,-1,-1],"split_conditions":[3E0,3.5E-1,-4.2520784E-2,7.2E-1,5.5E-1,-4.277607E-2,7.5E1,1.4E0,1E2,3.2E-1,2.5E-1,1E2,1E2,6.6E-1,-4.3169744E-2,4.1362572E-2,5.7073973E-2,-4.2591818E-2,1E2,7.1E-1,7.1E-1,2.2964296E-1,4E-1,6.9E-1,-4.3494046E-2,2.9E-1,-4.2826056E-2,1.7E-1,1.2083427E-1,4.5E-1,3.7E-1,2.1693754E-1,1.679339E-1,3.0122131E-2,2.2E1,3.3353277E-2,4.5713797E-2,6.751736E-2,9.859812E-2,4.757263E-2,6.6324964E-2,1.04403846E-1,8.7044746E-2,5.7948254E-2,5.114307E-2],"split_indices":[10,4,0,3,4,0,14,6,14,2,4,14,14,4,0,0,0,0,14,3,3,0,4,3,0,4,0,2,0,4,4,0,0,0,8,0,0,0,0,0,0,0,0,0,0],"split_type":[0,0,0,0,0,0,0,0,0,0,0,0,0,0,0,0,0,0,0,0,0,0,0,0,0,0,0,0,0,0,0,0,0,0,0,0,0,0,0,0,0,0,0,0,0],"sum_hessian":[1.8802021E4,1.1540107E4,7.2619126E3,4.3249697E3,7.2151377E3,3.476023E3,8.48947E2,4.5967793E3,2.6183586E3,1.4363144E2,7.0531555E2,3.293624E3,1.3031553E3,8.0933264E2,1.8090261E3,5.595429E1,8.767715E1,4.115513E2,2.9376425E2,9.147811E2,2.3788428E3,4.66263E2,8.368923E2,6.313248E2,1.7800781E2,7.436929E1,2.1939496E2,7.1774426E2,1.9703687E2,1.7184604E3,6.603823E2,3.4876068E2,4.8813156E2,6.6381714E1,5.649431E2,3.6250477E1,3.8118816E1,1.2205908E1,7.055384E2,7.8557404E2,9.328864E2,1.3554555E2,5.248368E2,3.5261133E2,2.1233177E2],"tree_param":{"num_deleted":"0","num_feature":"15","num_nodes":"45","size_leaf_vector":"1"}},{"base_weights":[-2.0906056E-1,3.4636924E-1,-5.677896E-1,-3.982585E-2,1.2057363E0,-3.9936934E-2,-6.6248953E-1,1.5488986E0,-3.8542584E-2,-5.7007503E-2,-3.9228063E-2,1.6650277E-1,8.997328E-2],"categories":[],"categories_nodes":[],"categories_segments":[],"categories_sizes":[],"default_left":[0,0,0,0,0,0,0,0,0,0,0,0,0],"id":32,"left_children":[1,3,5,-1,7,-1,9,11,-1,-1,-1,-1,-1],"loss_changes":[1.8413315E2,2.6381778E2,3.1984558E0,0E0,1.05146454E2,0E0,1.5319977E0,3.1205688E1,0E0,0E0,0E0,0E0,0E0],"parents":[2147483647,0,0,1,1,2,2,4,4,6,6,7,7],"right_children":[2,4,6,-1,8,-1,10,12,-1,-1,-1,-1,-1],"split_conditions":[1.19E2,6E-1,6E-1,-3.982585E-2,7.5E1,-3.9936934E-2,7.5E1,6.9E-1,-3.8542584E-2,-5.7007503E-2,-3.9228063E-2,1.6650277E-1,8.997328E-2],"split_indices":[7,4,4,0,14,0,14,3,0,0,0,0,0],"split_type":[0,0,0,0,0,0,0,0,0,0,0,0,0],"sum_hessian":[9.2203864E2,3.617253E2,5.603133E2,1.8262723E2,1.7909808E2,3.2922748E2,2.3108585E2,1.4895001E2,3.014806E1,1.7610622E2,5.497963E1,6.421827E1,8.473175E1],"tree_param":{"num_deleted":"0","num_feature":"15","num_nodes":"13","size_leaf_vector":"1"}},{"base_weights":[3.0894978E-3,-5.508432E-1,3.831885E-1,-5.930251E-1,-1.9656476E-1,-4.4404525E-1,7.965796E-1,-4.705358E-2,-6.0079706E-1,-4.7798794E-2,5.8547056E-1,-6.060016E-1,-2.158419E-2,-4.7587343E-2,1.2247452E0,-4.7061853E-2,-6.0807616E-1,-4.848351E-2,1.280897E0,-4.728475E-2,-4.905839E-2,9.748604E-1,-4.784488E-2,3.128813E-1,1.5852565E0,-4.70423E-2,-4.9298875E-2,2.1045063E0,-4.904638E-2,1.6862293E0,-4.9493987E-2,1.7654431E0,-4.7707867E-2,1.7401702E0,7.735787E-2,1.7852879E-1,1.497609E-1,1.6586135E-1,-4.668911E-2,1.4435972E-1,1.3500066E-1,1.8245044E0,1.3754123E0,1.1143531E0,-5.1361598E-2,1.455233E-1,1.5952833E-1,1.5692024E-1,8.310522E-3,1.4146103E-1,-5.1771495E-2],"categories":[],"categories_nodes":[],"categories_segments":[],"categories_sizes":[],"default_left":[0,0,0,0,0,0,0,0,0,0,0,0,0,0,0,0,0,0,0,0,0,0,0,0,0,0,0,0,0,0,0,0,0,0,0,0,0,0,0,0,0,0,0,0,0,0,0,0,0,0,0],"id":33,"left_children":[1,3,5,7,9,11,13,-1,15,-1,17,19,21,-1,23,-1,25,-1,27,-1,-1,29,-1,31,33,-1,-1,35,-1,37,-1,39,-1,41,43,-1,-1,-1,-1,-1,-1,45,47,49,-1,-1,-1,-1,-1,-1,-1],"loss_changes":[9.042308E3,2.6097803E2,8.710281E3,1.1669922E-1,5.8390027E2,5.806322E2,1.011875E4,0E0,6.518555E-2,0E0,5.2386914E2,1.796875E-1,1.3523246E3,0E0,4.268744E3,0E0,1.270752E-1,0E0,6.237634E2,0E0,0E0,9.792011E2,0E0,4.862883E3,2.1738027E3,0E0,0E0,3.6361084E0,0E0,5.25671E2,0E0,9.199219E-1,0E0,2.5680078E2,6.4843506E2,0E0,0E0,0E0,0E0,0E0,0E0,2.3398438E0,1.1839304E3,4.1134467E2,0E0,0E0,0E0,0E0,0E0,0E0,0E0],"parents":[2147483647,0,0,1,1,2,2,3,3,4,4,5,5,6,6,8,8,10,10,11,11,12,12,14,14,16,16,18,18,21,21,23,23,24,24,27,27,29,29,31,31,33,33,34,34,41,41,42,42,43,43],"right_children":[2,4,6,8,10,12,14,-1,16,-1,18,20,22,-1,24,-1,26,-1,28,-1,-1,30,-1,32,34,-1,-1,36,-1,38,-1,40,-1,42,44,-1,-1,-1,-1,-1,-1,46,48,50,-1,-1,-1,-1,-1,-1,-1],"split_conditions":[3.6E-1,7.2E-1,1.21E2,2.5E-1,3.063E1,6E-1,2.1E1,-4.705358E-2,2.1E1,-4.7798794E-2,1.04E2,2.1E1,8.5E1,-4.7587343E-2,2.407E1,-4.7061853E-2,1.19E2,-4.848351E-2,3.503E1,-4.728475E-2,-4.905839E-2,6.6E-1,-4.784488E-2,8.5E1,6.6E-1,-4.70423E-2,-4.9298875E-2,2.5E-1,-4.904638E-2,3.438E1,-4.9493987E-2,5.7E-1,-4.7707867E-2,3.6E1,8.5E1,1.7852879E-1,1.497609E-1,1.6586135E-1,-4.668911E-2,1.4435972E-1,1.3500066E-1,3.558E1,5.5E-1,3.438E1,-5.1361598E-2,1.455233E-1,1.5952833E-1,1.5692024E-1,8.310522E-3,1.4146103E-1,-5.1771495E-2],"split_indices":[4,3,7,4,12,4,8,0,8,0,7,8,14,0,12,0,7,0,12,0,0,4,0,14,4,0,0,4,0,12,0,4,0,12,14,0,0,0,0,0,0,12,4,12,0,0,0,0,0,0,0],"split_type":[0,0,0,0,0,0,0,0,0,0,0,0,0,0,0,0,0,0,0,0,0,0,0,0,0,0,0,0,0,0,0,0,0,0,0,0,0,0,0,0,0,0,0,0,0,0,0,0,0,0,0],"sum_hessian":[4.294436E4,1.7475678E4,2.5468682E4,1.5615477E4,1.8602009E3,8.486365E3,1.6982316E4,9.666262E3,5.949215E3,1.2299934E3,6.302076E2,6.1341006E3,2.3522644E3,3.9959485E3,1.2986367E4,2.2219133E3,3.7273018E3,2.3225551E2,3.9795206E2,2.0313988E3,4.1027017E3,8.617898E2,1.4904747E3,3.6801301E3,9.306237E3,1.1029194E3,2.6243823E3,2.7730545E2,1.2064661E2,5.958164E2,2.6597336E2,1.4164364E3,2.2636938E3,8.439033E3,8.672037E2,1.7345181E2,1.0385365E2,5.0913324E2,8.668314E1,9.279819E2,4.8845447E2,6.85081E3,1.5882233E3,3.550226E2,5.12181E2,6.648942E3,2.0186826E2,1.0867041E3,5.0151926E2,2.5894788E2,9.6074745E1],"tree_param":{"num_deleted":"0","num_feature":"15","num_nodes":"51","size_leaf_vector":"1"}},{"base_weights":[-1.5697536E-3,6.654609E-1,-4.246878E-2,1.1498289E0,-1.1788579E-1,1.9016209E0,7.834221E-1,-4.231543E-2,1.3294619E-3,1.5924062E0,2.4606664E0,9.918399E-1,-5.5186618E-2,-2.6229396E-2,1.5155727E-2,1.4488899E0,1.4330564E-1,2.118329E-1,1.8854292E-1,7.961186E-1,1.479636E0,3.2261427E-2,-1.0948492E-1,-1.02871815E-2,-7.4820146E-2,9.1000665E-3,6.973982E-2,1.2193256E-1,1.0652028E-1,8.772151E-1,4.3044657E-1,7.300601E-2,2.3474329E0,-6.471953E-2,-4.1925658E-2,-2.9667394E-2,2.7540011E-2,-1.904094E-1,-0E0,-8.710872E-3,2.4659676E-2,5.3389024E-2,1.1896875E-1,6.5388925E-2,8.01689E-2,2.334165E-2,3.5910446E-2,1.999308E-1,1.7594741E-1,-4.2215665E-3,-1.876988E-2,-3.0842393E-3,1.7797198E-3,-3.7119181E-3,4.713004E-3,-9.368298E-3,-2.9305853E-2,4.0453784E-3,-4.1992194E-3,2.8659657E-3,-1.4915024E-3,2.51437E-3,-1.7863448E-3,9.152914E-3,2.251055E-3,1.7480807E-2,5.5874754E-3],"categories":[],"categories_nodes":[],"categories_segments":[],"categories_sizes":[],"default_left":[0,0,0,0,0,0,0,0,0,0,0,0,0,0,0,0,0,0,0,0,0,0,0,0,0,0,0,0,0,0,0,0,0,0,0,0,0,0,0,0,0,0,0,0,0,0,0,0,0,0,0,0,0,0,0,0,0,0,0,0,0,0,0,0,0,0,0],"id":34,"left_children":[1,3,-1,5,7,9,11,-1,13,15,17,19,21,23,25,27,-1,-1,-1,29,31,-1,33,35,37,39,41,-1,-1,43,45,-1,47,49,-1,51,53,55,57,59,61,63,65,-1,-1,-1,-1,-1,-1,-1,-1,-1,-1,-1,-1,-1,-1,-1,-1,-1,-1,-1,-1,-1,-1,-1,-1],"loss_changes":[6.422073E3,3.0538088E3,0E0,1.3681357E3,1.5077774E2,2.772334E2,5.8484595E2,0E0,9.0808505E-1,2.7103027E1,4.503662E0,2.5441724E2,1.6612617E1,6.0638374E-1,5.1747155E-1,3.1314697E0,0E0,0E0,0E0,5.626819E1,3.7445776E2,0E0,1.09894705E1,4.417244E-1,1.6883656E0,3.9954302E-1,1.0287714E-1,0E0,0E0,1.0704468E1,6.8896484E-1,0E0,8.186035E-1,1.0558743E0,0E0,1.8687364E-1,4.7352728E-1,8.968127E-1,3.1849128E-1,2.9397312E-1,2.4632338E-1,1.6939989E-1,1.360178E-1,0E0,0E0,0E0,0E0,0E0,0E0,0E0,0E0,0E0,0E0,0E0,0E0,0E0,0E0,0E0,0E0,0E0,0E0,0E0,0E0,0E0,0E0,0E0,0E0],"parents":[2147483647,0,0,1,1,3,3,4,4,5,5,6,6,8,8,9,9,10,10,11,11,12,12,13,13,14,14,15,15,19,19,20,20,22,22,23,23,24,24,25,25,26,26,29,29,30,30,32,32,33,33,35,35,36,36,37,37,38,38,39,39,40,40,41,41,42,42],"right_children":[2,4,-1,6,8,10,12,-1,14,16,18,20,22,24,26,28,-1,-1,-1,30,32,-1,34,36,38,40,42,-1,-1,44,46,-1,48,50,-1,52,54,56,58,60,62,64,66,-1,-1,-1,-1,-1,-1,-1,-1,-1,-1,-1,-1,-1,-1,-1,-1,-1,-1,-1,-1,-1,-1,-1,-1],"split_conditions":[1.21E2,3E0,-4.246878E-2,2.274E1,1.9E1,1.4E0,3.503E1,-4.231543E-2,6.32E0,6.6E0,2.018E1,6.6E0,3.507E1,8.8E1,3.6E1,6.9E1,1.4330564E-1,2.118329E-1,1.8854292E-1,6.9E1,3.063E1,3.2261427E-2,7.1E1,6.6E1,3.7E-1,4.3E-1,5.3E-1,1.2193256E-1,1.0652028E-1,6.4E0,2.2E-1,7.300601E-2,3.283E1,5.1E-1,-4.1925658E-2,6.2E-1,2.238E1,3.118E1,2.678E1,2.018E1,6.7E-1,2.9E-1,5.4E-1,6.5388925E-2,8.01689E-2,2.334165E-2,3.5910446E-2,1.999308E-1,1.7594741E-1,-4.2215665E-3,-1.876988E-2,-3.0842393E-3,1.7797198E-3,-3.7119181E-3,4.713004E-3,-9.368298E-3,-2.9305853E-2,4.0453784E-3,-4.1992194E-3,2.8659657E-3,-1.4915024E-3,2.51437E-3,-1.7863448E-3,9.152914E-3,2.251055E-3,1.7480807E-2,5.5874754E-3],"split_indices":[7,10,0,12,8,6,12,0,5,5,12,5,12,7,12,13,0,0,0,13,12,0,13,7,0,0,1,0,0,5,0,0,12,1,0,0,12,12,12,12,0,0,0,0,0,0,0,0,0,0,0,0,0,0,0,0,0,0,0,0,0,0,0,0,0,0,0],"split_type":[0,0,0,0,0,0,0,0,0,0,0,0,0,0,0,0,0,0,0,0,0,0,0,0,0,0,0,0,0,0,0,0,0,0,0,0,0,0,0,0,0,0,0,0,0,0,0,0,0,0,0,0,0,0,0,0,0,0,0,0,0,0,0,0,0,0,0],"sum_hessian":[1.8188168E4,8.046822E3,1.0141346E4,4.972084E3,3.0747375E3,1.62777E3,3.3443142E3,6.9067505E2,2.3840625E3,1.0506631E3,5.77107E2,2.6785547E3,6.657595E2,7.937702E2,1.5902924E3,6.154235E2,4.352396E2,1.968424E2,3.802646E2,1.9135905E3,7.649642E2,6.962545E1,5.9613403E2,6.001393E2,1.936309E2,1.4341804E3,1.5611191E2,3.671647E2,2.4825879E2,1.5648708E3,3.4871957E2,4.6395813E2,3.0100604E2,5.3929987E2,5.6834217E1,3.9872015E2,2.0141914E2,7.562014E1,1.1801077E2,6.659206E2,7.6825977E2,1.2027863E2,3.5833267E1,1.0635403E3,5.0133063E2,4.3526882E1,3.0519272E2,1.4051385E2,1.6049217E2,5.0563583E2,3.3664005E1,3.4231332E2,5.640682E1,5.8910965E1,1.4250818E2,5.4954144E1,2.0665998E1,6.0385906E1,5.7624866E1,1.1912672E2,5.467939E2,6.736612E2,9.4598595E1,3.301111E1,8.7267525E1,1.0028714E1,2.5804554E1],"tree_param":{"num_deleted":"0","num_feature":"15","num_nodes":"67","size_leaf_vector":"1"}},{"base_weights":[-1.6945995E-2,-4.109346E-2,9.7788566E-1,1.8858736E0,-4.110717E-2,2.3299255E0,-4.0948346E-2,-4.0717676E-2,2.0355317E-1],"categories":[],"categories_nodes":[],"categories_segments":[],"categories_sizes":[],"default_left":[0,0,0,0,0,0,0,0,0],"id":35,"left_children":[1,-1,3,5,-1,7,-1,-1,-1],"loss_changes":[4.384262E3,0E0,4.0030632E3,1.9571865E3,0E0,9.453828E2,0E0,0E0,0E0],"parents":[2147483647,0,0,2,2,3,3,5,5],"right_children":[2,-1,4,6,-1,8,-1,-1,-1],"split_conditions":[7.1E-1,-4.109346E-2,3.2E-1,7.2E-1,-4.110717E-2,2.274E1,-4.0948346E-2,-4.0717676E-2,2.0355317E-1],"split_indices":[3,0,4,3,0,12,0,0,0],"split_type":[0,0,0,0,0,0,0,0,0],"sum_hessian":[8.870315E3,5.916683E3,2.9536328E3,1.8359338E3,1.117699E3,1.5491128E3,2.8682104E2,1.0869034E2,1.4404224E3],"tree_param":{"num_deleted":"0","num_feature":"15","num_nodes":"9","size_leaf_vector":"1"}},{"base_weights":[-1.576982E-2,9.9406195E-1,-4.0757544E-2,-2.863634E-1,1.7457619E0,-4.0789194E-2,6.5442376E-2,-4.0462475E-2,2.103033E0,-4.0107545E-2,2.6548338E-1,1.8324262E-1,1.5717424E-1,1.880647E-1,3.405962E-1,2.2687598E-1,-7.142515E-2,3.2220542E-2,2.490013E-1,2.727007E-2,1.33657055E-2,2.9415756E-3,-2.9567901E-2,2.490563E-2,8.707208E-3],"categories":[],"categories_nodes":[],"categories_segments":[],"categories_sizes":[],"default_left":[0,0,0,0,0,0,0,0,0,0,0,0,0,0,0,0,0,0,0,0,0,0,0,0,0],"id":36,"left_children":[1,3,-1,5,7,-1,9,-1,11,-1,13,-1,-1,15,17,19,21,-1,23,-1,-1,-1,-1,-1,-1],"loss_changes":[3.1177957E3,1.9770632E3,0E0,5.986667E1,1.0421636E3,0E0,3.3683453E1,0E0,2.4052734E1,0E0,1.1603966E0,0E0,0E0,1.1502008E0,4.585476E-1,5.5480576E-1,5.2673566E-1,0E0,3.3968568E-1,0E0,0E0,0E0,0E0,0E0,0E0],"parents":[2147483647,0,0,1,1,3,3,4,4,6,6,8,8,10,10,13,13,14,14,15,15,16,16,18,18],"right_children":[2,4,-1,6,8,-1,10,-1,12,-1,14,-1,-1,16,18,20,22,-1,24,-1,-1,-1,-1,-1,-1],"split_conditions":[2E1,2.87E1,-4.0757544E-2,2.43E1,8.5E1,-4.0789194E-2,8.5E1,-4.0462475E-2,3.31E1,-4.0107545E-2,4.6E-1,1.8324262E-1,1.5717424E-1,4.3E-1,6.36E0,2.7E-1,2.821E1,3.2220542E-2,6E-1,2.727007E-2,1.33657055E-2,2.9415756E-3,-2.9567901E-2,2.490563E-2,8.707208E-3],"split_indices":[8,12,0,12,14,0,14,0,12,0,0,0,0,0,5,0,12,0,0,0,0,0,0,0,0],"split_type":[0,0,0,0,0,0,0,0,0,0,0,0,0,0,0,0,0,0,0,0,0,0,0,0,0],"sum_hessian":[6.2517656E3,2.0524304E3,4.1993354E3,7.5939075E2,1.2930397E3,4.6427356E2,2.9511716E2,1.7698361E2,1.116056E3,7.646337E1,2.1865378E2,4.6695578E2,6.491003E2,1.1005515E2,1.08598625E2,9.6180695E1,1.3874462E1,6.2020035E1,4.6578594E1,3.0902426E1,6.527827E1,1.0577599E1,3.2968636E0,3.0903519E1,1.5675074E1],"tree_param":{"num_deleted":"0","num_feature":"15","num_nodes":"25","size_leaf_vector":"1"}},{"base_weights":[-2.1153481E-3,-1.9178425E-1,2.3411462E0,4.8368552E-1,-4.4689703E-1,-4.204258E-2,3.2108731E0,-4.667103E-1,9.6343535E-1,-4.2210422E-2,-1.0401432E-2,3.6529944E0,1.1044711E0,-4.2194154E-2,2.6758907E-2,4.7331575E-1,2.3142316E0,-4.2430967E-2,1.9989147E0,3.0107896E0,3.9713533E0,-4.2099256E-2,3.975535E-1,-4.1802105E-2,2.1944232E0,1.6903495E0,-2.746588E-1,3.1608033E0,2.3641707E-1,3.3436093E0,-4.1716293E-2,-4.1803308E-2,3.561785E0,4.232834E0,2.6227692E-1,2.682022E-1,1.1484449E0,2.453009E0,-4.219565E-2,-4.3058895E-2,8.412107E-1,1.9715126E-1,2.8466275E-1,-4.243039E-2,2.905735E-1,-4.1167002E-2,3.369866E-1,3.1984657E-1,1.9439277E-1,4.3997445E0,2.827156E-1,-3.9683808E-2,2.6864278E-1,1.6877988E-1,2.7502897E-1,1.5351796E-1,-4.3707583E-2,3.973386E-1,3.3856508E-1],"categories":[],"categories_nodes":[],"categories_segments":[],"categories_sizes":[],"default_left":[0,0,0,0,0,0,0,0,0,0,0,0,0,0,0,0,0,0,0,0,0,0,0,0,0,0,0,0,0,0,0,0,0,0,0,0,0,0,0,0,0,0,0,0,0,0,0,0,0,0,0,0,0,0,0,0,0,0,0],"id":37,"left_children":[1,3,5,7,9,-1,11,13,15,-1,17,19,21,-1,23,25,27,-1,29,31,33,-1,-1,-1,35,37,39,41,43,45,-1,-1,47,49,-1,-1,51,53,-1,-1,55,-1,-1,-1,-1,-1,-1,-1,-1,57,-1,-1,-1,-1,-1,-1,-1,-1,-1],"loss_changes":[7.1920723E3,2.5800156E3,3.0230947E3,1.8719767E3,3.8290405E2,0E0,8.6144434E2,4.1336426E1,1.804737E3,0E0,1.774468E3,1.4437695E2,1.0290242E3,0E0,1.8192566E2,1.8240076E3,1.2759541E3,0E0,1.1853262E3,5.0600488E2,7.7819824E1,0E0,0E0,0E0,3.31259E1,1.2914456E3,3.6554272E2,1.3338428E2,5.523825E2,7.661753E2,0E0,0E0,1.0027954E2,2.6461426E1,0E0,0E0,6.6632484E1,1.8411182E2,0E0,0E0,3.5638556E2,0E0,0E0,0E0,0E0,0E0,0E0,0E0,0E0,5.820801E0,0E0,0E0,0E0,0E0,0E0,0E0,0E0,0E0,0E0],"parents":[2147483647,0,0,1,1,2,2,3,3,4,4,6,6,7,7,8,8,10,10,11,11,12,12,14,14,15,15,16,16,18,18,19,19,20,20,24,24,25,25,26,26,27,27,28,28,29,29,32,32,33,33,36,36,37,37,40,40,49,49],"right_children":[2,4,6,8,10,-1,12,14,16,-1,18,20,22,-1,24,26,28,-1,30,32,34,-1,-1,-1,36,38,40,42,44,46,-1,-1,48,50,-1,-1,52,54,-1,-1,56,-1,-1,-1,-1,-1,-1,-1,-1,58,-1,-1,-1,-1,-1,-1,-1,-1,-1],"split_conditions":[6.6E-1,2E0,1.21E2,1.26E2,3.6E1,-4.204258E-2,4E0,3.594E1,5.3E-1,-4.2210422E-2,5.5E-1,2.43E1,3.438E1,-4.2194154E-2,1.21E2,2.274E1,6.4E0,-4.2430967E-2,3E0,1.33E0,3.53E1,-4.2099256E-2,3.975535E-1,-4.1802105E-2,3.3E-1,6.4E0,3.594E1,2.274E1,3.503E1,1.04E2,-4.1716293E-2,-4.1803308E-2,1.4E0,1.4E0,2.6227692E-1,2.682022E-1,5.3E-1,4E-1,-4.219565E-2,-4.3058895E-2,3.3E-1,1.9715126E-1,2.8466275E-1,-4.243039E-2,2.905735E-1,-4.1167002E-2,3.369866E-1,3.1984657E-1,1.9439277E-1,1.33E0,2.827156E-1,-3.9683808E-2,2.6864278E-1,1.6877988E-1,2.7502897E-1,1.5351796E-1,-4.3707583E-2,3.973386E-1,3.3856508E-1],"split_indices":[4,10,7,7,12,0,10,12,4,0,4,12,12,0,7,12,5,0,10,6,12,0,0,0,4,5,12,12,12,7,0,0,6,6,0,0,4,4,0,0,4,0,0,0,0,0,0,0,0,6,0,0,0,0,0,0,0,0,0],"split_type":[0,0,0,0,0,0,0,0,0,0,0,0,0,0,0,0,0,0,0,0,0,0,0,0,0,0,0,0,0,0,0,0,0,0,0,0,0,0,0,0,0,0,0,0,0,0,0,0,0,0,0,0,0,0,0,0,0,0,0],"sum_hessian":[1.6180658E4,1.496992E4,1.2107384E3,4.103547E3,1.0866373E4,2.8189017E2,9.2884827E2,1.3764955E3,2.7270515E3,9.169892E3,1.6964808E3,7.670643E2,1.6178395E2,1.2258057E3,1.5068976E2,2.0020552E3,7.249964E2,1.3483347E3,3.4814618E2,2.5779755E2,5.0926672E2,1.1436757E2,4.7416378E1,1.2079354E2,2.9896221E1,7.6164764E2,1.2404075E3,5.1471484E2,2.1028154E2,2.2683548E2,1.21310715E2,3.4760628E1,2.2303693E2,3.6592303E2,